n	-0.012283758260309694	-0.013258049264550207	-0.0036006497684866186	0.007345174904912709	0.015968259423971176	-0.0024707571137696505	-0.0651475265622139	-0.000717775197699666	-0.02129712887108326	-0.001692670746706426	-0.033893849700689316	-0.017296236008405685	-0.07747415453195572	0.008654119446873665	-0.04520988836884498	-0.02032432146370411	0.006366835441440344	0.01926948130130768	-0.03419996425509453	-0.013791679404675959	-0.055909398943185806	1.5199008885247167e-05	-0.03627664968371391	0.008633510209619999	-0.06544242054224014	-0.020275495946407318	-0.08368869125843048	-0.0042973174713552	-0.040578387677669525	-0.09857524186372756	-0.0051577864214777955	-0.06722631305456161	-0.062064561992883675	0.18596531450748446	-0.12206843495368958	-0.13638265430927274	-0.012539273127913477	-0.0539424829185009	0.07796002179384233	0.12936681509017944	-0.08631955832242966	0.2486453652381897	-0.05478241667151451	-0.027060100808739662	0.019990568980574608	-0.21557451784610748	-0.007548796944320202	-0.07946007698774338	0.040723670274019234	0.015733947977423668	0.03566066920757294	0.0826069638133049	0.014524461701512337	-0.06574974209070206	-0.03902100399136543	-0.02553885243833065	-0.15326188504695892	0.05557816475629807	-0.24036312103271484	-0.0954110249876976	0.01971164345741272	0.048987794667482376	0.09112942218780518	0.2237223982810974	-0.15108413994312286	-0.08839386701583862	0.013425267301499844	-0.14927472174167633	0.0045237336307764045	-0.06351485103368759	0.04654641076922417	-0.2573078274726868	-0.1982494592666626	0.3745957911014557	-0.11441799998283385	0.08984002470970154	-0.009435423649847507	0.0285172238945961	0.0352596640586853	-0.17025065422058105	-0.038459639996290214	-0.07934790104627609	-0.06940197944641112	0.05601077154278755	-0.007766935974359512	-0.19185590744018555	0.025528987869620327	-0.03530379384756088	-0.07251721620559692	0.00265096384100616	-0.12966838479042053	-0.4554186165332794	-0.03966212272644043	-0.4225162863731384	-0.07712718099355698	-0.03877520561218262	-0.01553894393146038	0.04001516848802567	0.0517822690308094	-0.062075555324554436	-0.22175359725952148	0.07735937088727951	-0.07061302661895752	0.2434227019548416	0.1052752137184143	-0.04270116612315178	0.048387698829174035	-0.11011986434459686	-0.06254752725362778	-0.058350298553705215	-0.23309123516082764	-0.1282184273004532	0.0026387849356979127	-0.2200908213853836	-0.030393950641155243	0.044001691043376916	0.10964824259281157	-0.27270933985710144	-0.036445032805204385	0.08486227691173552	0.02917380817234516	-0.17531059682369232	-0.07317107915878296	-0.18016496300697327	0.0759851410984993	-0.058818791061639786	-0.03625735640525818	-0.2162853628396988	0.2270187735557556	-0.3131090402603149	-0.0875488817691803	0.02766999416053295	0.13174889981746676	-0.011452406644821169	-0.14196932315826416	-0.06766263395547867	-0.1456470638513565	-0.024481886997818947	0.07781044393777847	-0.0005487643647938967	-0.2032392770051956	-0.17591628432273865	0.0021248338744044304	-0.33685302734375	0.05487120151519776	-0.13425098359584808	-0.0002075412339763716	-0.04572495073080063	0.007876887917518616	0.21116389334201813	-0.08014915138483047	0.11534962058067323	0.1295788288116455	0.15107418596744535	0.13239550590515134	0.2234923243522644	-0.16676247119903564	-0.06529971957206726	-0.014047849923372269	-0.11430723965168	-0.19638511538505554	-0.031983941793441766	0.10124430060386658	0.3914605677127838	0.0221177339553833	-0.05091815814375877	-0.03150003030896187	0.06544163078069687	-0.1848553866147995	0.07375667244195938	0.2366002202033997	-0.033795926719903946	-0.06882356852293015	0.0697234719991684	0.0426948256790638	-0.061341606080532074	0.2983078062534332	0.148995041847229	-0.24549445509910586	-0.0037760171107947826	0.1203029677271843	-0.016174618154764175	0.042606592178344734	-0.12328429520130155	0.13301990926265714	0.17296218872070312	0.27135023474693304	0.17435316741466522	0.0882333517074585	-0.2153863161802292	-0.041161950677633286	0.3617391288280487	-0.07520012557506561	-0.20319689810276031	-0.07663309574127197	-0.19961707293987274	-0.008635305799543858	-0.031205410137772564	0.06416653096675873	-0.2452382743358612	0.0768011063337326	-0.17786623537540436	-0.10939083248376846	-0.2613014876842499	0.07761752605438232	-0.09274263679981233	0.16169625520706174	0.032724883407354355	0.11367490142583847	-0.08273511379957199	0.0771578997373581	-0.045744799077510834	0.044041246175765984	0.01916090399026871	0.102073572576046	-0.15853525698184967	0.08878904581069946	0.1327323466539383	0.005168919451534748	-0.10161832720041276	-0.009214201010763643	-0.16601210832595825	-0.08813116699457169	-0.2576106190681457	0.1158951371908188	0.1635310798883438	-0.16273173689842224	-0.01954316720366478	-0.20283351838588715	-0.02047176472842693	-0.14415688812732694	-0.04637964814901352	-0.026073800399899483	-0.07375010848045349	-0.059906933456659324	0.5276688933372498
i	-0.02936377190053463	-0.0023341535124927764	-0.010447473265230656	0.0072690434753894815	-0.012063343077898027	-0.006123317405581474	-0.011368328705430029	-0.031477689743041985	0.01683270931243896	-0.030846189707517624	-0.021824588999152184	-0.03183919936418533	-0.03147109597921372	0.0004850693512707949	-0.05966496467590333	-0.030491361394524574	-0.014811644330620766	-0.015346369706094263	-0.11743398755788804	-0.03880160674452782	-0.053393267095088966	0.00563351484015584	0.023656068369746208	0.013649755157530308	-0.07579313963651657	-0.035364992916584015	-0.05222219601273537	-0.017654819414019585	-0.012715201824903488	0.03370281681418419	-0.07903113216161728	-0.13090375065803528	0.048287659883499146	-0.06675001233816147	-0.04127833619713783	0.0009873792296275496	0.006781192496418953	0.3189961016178131	-0.11489259451627733	-0.1592957228422165	0.005587025079876185	-0.08811328560113907	0.0569492019712925	-0.0955079197883606	-0.07925823330879211	-0.2644246518611908	0.04600166529417038	0.3457729518413544	-0.01169052254408598	0.12238413840532306	-0.05061927810311317	0.019992412999272343	-0.04566983133554458	0.08857781440019608	-0.05288392677903176	0.18795782327651975	0.042725250124931335	-0.09761470556259157	-0.13079196214675906	-0.13952729105949402	-0.03838355466723442	0.2072567343711853	-0.015080693177878857	-0.0652998611330986	0.06818438321352005	0.07458323240280151	-0.04077921062707901	0.053656138479709625	0.07389560341835022	-0.020260673016309738	-0.050320252776145935	-0.22170136868953705	0.07437966763973236	0.01868826523423195	0.18873539566993716	0.05868170037865639	0.17906130850315094	-0.2975245714187622	-0.0392189659178257	0.3438186049461365	0.0557655468583107	-0.08656490594148636	0.07308578491210938	0.08058884739875792	0.053524579852819436	0.048170484602451324	-0.05870694667100905	-0.17398343980312347	-0.033046696335077286	0.19979791343212128	-0.29134228825569153	-0.1893051713705063	0.11980646848678587	0.257065623998642	-0.003502458101138473	-0.05154869332909584	-0.06864520907402039	0.011351979337632656	-0.01608220301568508	0.06945835053920746	0.09295720607042313	0.06531006842851639	-0.07505302876234055	-0.10850220173597336	-0.12595924735069275	-0.2297973781824112	-0.09457695484161376	0.029632803052663807	0.014266282320022585	0.0899280458688736	-0.3911268711090088	-0.05728715658187866	-0.01888141967356205	-0.1954127848148346	0.05642067641019821	0.2358458489179611	-0.10279538482427596	-0.07479998469352722	-0.053776297718286514	-0.1519419401884079	0.14216606318950653	-0.19404394924640656	-0.17882202565670013	-0.1964232325553894	-0.12333858013153075	-0.019400790333747864	0.07837788015604019	0.10050970315933228	-0.003288259031251073	-0.11594577878713608	-0.31461045145988464	-0.07555617392063141	-0.03710518777370453	-0.3049498796463013	-0.13553807139396667	0.10163773596286774	0.19275636970996854	0.045533496886491776	0.07881923019886017	0.4148220419883728	0.015028061345219612	0.14644351601600647	-0.10537098348140717	-0.12299568206071855	-0.05587008222937584	0.18604426085948944	0.08329437673091887	-0.1677982062101364	-0.033091731369495385	0.039111237972974784	-0.0343443900346756	-0.02868727780878544	-0.047303318977355964	-0.18988168239593506	0.013390561565756798	-0.25161540508270264	0.12840475142002106	0.026116881519556046	0.011022509075701237	0.12948618829250336	-0.08623399585485457	-0.2732995748519897	-0.09625451266765593	-0.22948864102363584	0.12898758053779602	-0.1975455582141876	0.15878406167030334	0.021799582988023758	0.06440362334251404	-0.09757409989833833	-0.06481044739484787	-0.016055189073085785	0.08589930087327957	-0.11093701422214508	-0.08314372599124907	-0.1539004147052765	-0.06274933367967606	-0.018862932920455933	0.0865929126739502	-0.210309237241745	-0.03213175013661385	0.2263050377368927	0.06657463312149048	0.08444809913635254	0.02340123057365417	-0.05427173525094986	-0.1043923795223236	0.0602598749101162	-0.02214137464761734	-0.2223374843597412	-0.011124715209007265	-0.2399962842464447	-0.13978038728237152	-0.2744451463222504	0.022287357598543167	-0.07755255699157715	0.07636742293834686	0.05108349025249481	0.07574063539505005	0.15061849355697632	-0.06085919588804245	0.3145255148410797	0.007185791619122028	-0.02931593544781208	0.052498042583465576	-0.09878558665513992	-0.2017281949520111	0.3909471929073334	-0.16724058985710144	0.09721683710813522	-0.1610306203365326	-0.07972850650548935	0.05461258068680763	-0.05686892941594124	0.0977211967110634	0.7084217071533203	0.0016452315030619502	-0.16104000806808472	0.006485730409622192	-0.15135720372200012	-0.09957373887300493	-0.2574135363101959	-0.03056179918348789	-0.05036376044154167	0.06180180981755256	0.033188052475452416	-0.0264004934579134	0.1707540899515152	-0.04723463580012322	-0.2210129052400589	-0.02219250425696373	0.16140854358673096	-0.12531384825706482	0.005961546208709478	0.034397516399621964	0.012263094075024128
a	-0.032163847237825394	0.0015726808924227953	-0.0240170955657959	-0.00020789178961422292	-0.046717312186956406	-0.015930566936731342	-0.004179899115115404	-0.001705964794382453	-0.04788114875555039	-0.03364919126033783	-0.02123131975531578	-0.01900469698011875	-0.09041909873485564	-0.04789260774850845	0.005755877587944269	-0.041267693042755134	0.11788573116064073	0.002947329310700297	-0.052983414381742484	-0.053626153618097305	-0.01720158383250236	-0.031101467087864883	-0.08171247690916061	-0.03663446009159088	0.005705760791897775	-0.09712237864732742	-0.06426434963941574	0.033431213349103935	-0.08731506764888762	0.10007482022047044	0.04285649582743645	-0.002267521806061268	-0.00848686695098877	-0.030302677303552624	-0.050787895917892456	-0.18823696672916407	-0.09308255463838576	0.3339067101478577	0.04445261135697365	-0.14395777881145475	-0.04201371595263481	0.06107936426997185	-0.036995485424995415	-0.042703192681074136	-0.018179567530751232	0.22067949175834656	0.0823330506682396	0.05351189151406288	-0.004198254086077213	-0.2616606652736664	-0.04067591950297356	0.1658194214105606	-0.01925461925566196	-0.03152856230735779	-0.11163854598999023	0.35935327410697937	0.1564084142446518	-0.2057794034481049	0.05299379676580429	-0.2729667127132416	0.050753213465213776	0.3552420437335968	-0.17851494252681732	-0.1165035143494606	0.08285881578922273	-0.043917421251535416	-0.04844516143202782	0.08064448833465576	0.00771936308592558	-0.06811078637838364	-0.02349319308996201	-0.18450430035591125	0.11708734184503555	-0.15198205411434176	0.09971289336681366	0.15690737962722778	-0.15804782509803772	0.2882625162601471	-0.002885413123294711	-0.02368085086345673	-0.06889662891626358	-0.2761693000793457	0.07385562360286713	-0.06649361550807953	0.06825339794158937	-0.17332525551319122	-0.015497668646275997	-0.09885095059871674	0.15208560228347778	-0.01104749459773302	-0.07618854194879532	-0.11172544211149216	-0.1146957501769066	-0.27259522676467896	-0.04789521917700768	-0.162547767162323	0.1190645918250084	0.10990622639656067	0.05347702279686928	-0.2858732640743256	-0.026151714846491814	-0.08260543644428253	-0.3015512228012085	-0.034456424415111535	-0.0443231537938118	0.021725840866565704	0.1347087323665619	0.034534841775894165	-0.11615321040153505	-0.10536251217126846	-0.2365271896123886	0.03838084265589714	-0.007436108309775591	-0.2475206553936005	-0.01305211428552866	0.14062011241912842	-0.1712978631258011	-0.03296775743365288	0.06564726680517198	-0.11373286694288255	-0.3696718811988831	-0.17379415035247806	0.022081362083554268	-0.12025760114192965	0.059380106627941125	0.04233627766370773	0.12703943252563474	0.15573227405548096	-0.011696311645209791	-0.15722908079624176	-0.017774377018213272	0.027787208557128903	-0.17670251429080966	-0.038749560713768005	-0.05976783484220505	-0.2694898247718811	0.0459899827837944	0.10597991943359376	0.1239943504333496	-0.14266563951969147	-0.056829139590263374	-0.3669633865356445	-0.010663621127605438	0.1779129058122635	-0.20593607425689694	0.19956840574741366	-0.03820768743753433	0.18160530924797055	0.005529614165425301	0.13161027431488034	-0.011016988195478916	-0.16675251722335815	-0.00930265337228775	-0.06794828921556473	-0.06829190254211426	-0.022059300914406776	0.08987898379564285	0.020251501351594925	-0.018581949174404144	0.0154495844617486	0.03916957974433899	-0.04742613807320595	-0.005973660387098789	-0.129742830991745	-0.04013579711318016	-0.1797178089618683	-0.07353417575359343	-0.13090874254703522	0.0015892763622105124	-0.28385627269744873	-0.015594393946230413	-0.1000421941280365	0.00392060587182641	0.10326958447694777	0.04348281025886536	0.2326571196317673	0.11195995658636093	-0.1662067174911499	-0.24876710772514346	0.012552800588309765	-0.006375025026500225	-0.06838274002075195	0.023294834420084957	-0.0280243419110775	0.09428046643733977	-0.06344404816627502	-0.2125099301338196	0.1088230162858963	-0.0017009071307256818	-0.22395819425582889	0.13377775251865387	0.019562546163797382	-0.2302253097295761	0.07780022919178009	-0.16399891674518585	0.2836478054523468	0.07603896409273148	0.13024035096168518	-0.01233949791640043	-0.25790151953697205	0.10302259027957916	0.2772233188152313	-0.02493716217577457	-0.16882045567035675	0.11540044099092485	0.13896143436431885	0.15113939344882965	0.1333952099084854	0.03189712017774582	-0.07768198847770691	0.017404375597834587	0.07984301447868347	-0.06855237483978271	-0.04502478614449501	-0.2931818962097168	-0.001670823898166418	-0.06190972030162811	-0.07280408591032027	0.1868208795785904	-0.1518462747335434	0.013756801374256613	-0.02684119343757629	0.025184795260429386	0.1242297813296318	-0.1000080406665802	-0.07478620111942291	-0.030756479129195213	-0.30924856662750244	-0.030069770291447636	-0.2919087111949921	0.1676451712846756	0.15782813727855682	-0.12278564274311066	-0.08904871344566345	0.054235771298408515	-0.15855109691619873
s	-0.018142387270927433	0.014739821664988996	-0.008295602165162563	-0.0027736821211874485	0.023621564731001854	0.01947914995253086	-0.014621862210333347	0.016659390181303024	-0.07188299298286438	-0.019719328731298447	-0.0031783378217369322	0.010855640284717085	-0.0028818624559789896	-0.01692178100347519	-0.022217128425836563	-0.007039889693260194	-0.07205301523208618	0.04681573063135147	0.06783517450094223	0.0032176014501601453	-0.07731857150793076	-0.09787939488887787	-0.009260466322302818	0.05670041963458061	-0.021028157323598858	-0.01331094652414322	-0.057630889117717736	-0.03274523466825485	-0.05190519988536835	-0.11899609863758087	-0.029379565268754963	-0.08687792718410492	-0.03115185350179672	0.17774198949337006	-0.060808230191469186	0.012103946879506113	0.011425333097577095	-0.14768123626708984	-0.12733593583106995	-0.02081044763326645	0.06318453699350357	-0.06174396350979805	-0.03746670112013817	-0.09001380950212479	-0.16990992426872253	-0.07540053874254228	0.040274862200021744	-0.1739158183336258	0.022193253040313717	0.037065789103508	0.09643880277872086	0.3462205231189728	0.07731831818819046	0.07865773886442183	0.1418374478816986	-0.05568907782435417	0.10955067723989488	0.06607753038406372	0.07411135733127594	0.14184850454330444	-0.03540641069412232	0.21065126359462735	-0.11690046638250352	0.16115829348564148	-0.05337200313806534	0.007591466885060072	-0.09940075874328612	-0.2080163061618805	-0.1214929074048996	0.011934596113860607	-0.016168396919965744	0.05520305782556534	-0.10459242016077043	-0.1784600019454956	-0.0766778513789177	0.132491335272789	0.010993549600243568	0.016605399549007416	0.03110076487064362	-0.3169427812099457	-0.11222859472036363	0.36534640192985535	0.1573684960603714	0.12670214474201202	-0.05409810692071915	0.17846554517745972	-0.14937369525432587	-0.13036291301250458	-0.08369883894920349	0.0010909993434324858	-0.031446706503629684	-0.1662994623184204	-0.12189091742038727	-0.299629807472229	-0.1635357141494751	0.24079355597496035	-0.05550522729754448	-0.1696525663137436	0.033398691564798355	0.016198763623833656	0.2531466484069824	-0.19419190287590027	-0.2450326085090637	0.34035003185272217	0.1058158352971077	0.11768858879804613	0.10100851207971573	-0.04902099445462227	0.013623601756989956	0.05615564435720444	-0.09200739860534668	-0.0329744927585125	-0.2883423864841461	0.01928494870662689	-0.1444513499736786	-0.04324562847614288	0.03105954639613628	-0.22335173189640045	0.06861089169979095	-0.02358341217041016	-0.15388567745685575	0.004339719656854868	-0.10300056636333466	-0.190676748752594	0.16596274077892306	0.014704370871186256	-0.12197695672512054	-0.060793936252594	-0.010657898150384426	-0.2772514522075653	0.058280885219573975	0.02229319699108601	-0.018449565395712846	-0.2933136820793152	-0.07635445147752762	-0.15223203599452972	0.0486440509557724	0.02332470938563347	0.027402354404330254	-0.11046412587165833	-0.08407573401927948	-0.04156593978404999	0.09610223770141603	-0.1769239455461502	-0.011124718934297562	-0.026403332129120827	-0.04849996417760849	-0.04973411187529564	-0.03002836741507053	-0.06263921409845352	0.0896906703710556	-0.06540901213884354	0.0969322994351387	0.05719190090894699	0.25920093059539795	0.14344725012779236	-0.06340734660625458	0.039940953254699714	-0.04975631460547447	-0.1714806705713272	-0.038763556629419334	-0.2995045781135559	0.10977989435195924	0.08626294881105423	0.14707492291927338	0.02477563172578812	-0.20146729052066806	-0.2599070966243744	-0.17709381878376007	-0.28613999485969543	-0.07133461534976959	0.027936361730098724	0.050429925322532654	-0.09837386757135393	0.047381430864334106	0.00807039812207222	-0.23554472625255585	-0.008060813881456852	-0.027372663840651512	-0.10188599675893784	0.06454606354236603	-0.05043056979775429	0.1251935362815857	-0.2673637866973877	-0.3895246982574463	0.3840716779232025	-0.0075635029934346685	0.17368389666080475	-0.0029630945064127445	-0.2625255882740021	0.12449411302804947	-0.07681472599506378	0.28575900197029114	0.21831780672073364	-0.3016479015350342	-0.15644919872283936	-0.1476181298494339	0.10079467296600343	0.023383194580674168	-0.18988661468029025	0.017647139728069302	0.0644848570227623	-0.05751080438494682	0.01924055814743042	0.012984451837837696	-0.19530172646045685	-0.121037095785141	0.08807867765426636	0.0024915614631026983	0.06239297240972519	0.14834226667881012	-0.07153264433145523	-0.06311456859111786	0.1849074512720108	0.0116184763610363	-0.08988837152719498	-0.014285864308476446	-0.1222231388092041	-0.06005628779530525	-0.140964537858963	0.10933172702789308	-0.1478210687637329	0.19421415030956268	-0.2670298516750336	-0.3132575452327728	-0.12080248445272446	-0.04400599375367165	-0.05604660883545876	0.08124149590730667	-0.2688964605331421	-0.044855285435914986	0.14455778896808624	0.021279551088809967	-0.2762743830680847	-0.10959570109844208	0.4708239436149597
t	0.003249479923397302	-0.01123624574393034	-0.004814254119992256	0.025922814384102818	-0.010526492260396479	0.04171139374375343	0.0121327992528677	0.004225509241223335	-0.05303942784667015	0.010974176228046416	-0.09781782329082488	0.0066581210121512404	0.019232749938964844	0.006261516362428665	0.013926503248512743	0.015550896525382997	-0.1142401322722435	0.05806545168161392	0.01737111620604992	-0.038145221769809716	-0.0247363168746233	-0.03575760871171951	-0.0045078624971210965	-0.0026361742056906228	0.008342476561665535	-0.03083511255681515	-0.01816760934889317	-0.08994923532009125	0.0059781381860375404	-0.0221506766974926	-0.01450994051992893	0.03115779347717762	-0.1924351900815964	-0.107064850628376	-0.004617853555828333	-0.11322558671236037	-0.1183989942073822	-0.15701742470264435	-0.04644392430782318	0.3533599078655243	-0.058389242738485336	0.30250176787376404	-0.010628764517605305	-0.05826057493686676	-0.12225309014320375	-0.011953645385801792	0.01808116026222706	-0.011265261098742485	-0.07131665945053099	0.25698259472846985	0.006417185999453068	0.08268646895885468	0.050988323986530304	0.1077306941151619	-0.04392025992274285	-0.1779273897409439	0.028756389394402507	0.00036828307202085847	-0.038576014339923866	0.011595787480473518	-0.05302170291543007	-0.18488004803657526	-0.3369809687137604	-0.16144397854804993	-0.09891992807388306	0.1798405945301056	-0.1041412428021431	-0.05955752730369567	-0.06628929078578949	-0.07882902026176453	0.11167138814926147	0.12069927901029588	0.1744694709777832	0.1076580062508583	0.016465799883008003	0.20163169503211972	-0.1901954710483551	-0.18397122621536252	0.07523028552532196	-0.1461215764284134	-0.10369904339313507	-0.008616629056632519	-0.1338789463043213	-0.22448429465293884	-0.003038454568013549	-0.0934329479932785	0.19948601722717285	-0.17754989862442014	0.05785657465457916	0.13782915472984314	0.15409265458583832	-0.225958451628685	-0.3468800783157349	-0.1095324233174324	0.0198370311409235	0.2060863971710205	-0.21893095970153809	-0.031560398638248444	0.007409354206174613	-0.41028568148612976	0.03017767332494259	-0.17254532873630524	0.1250588595867157	-0.10241452604532242	0.06310559064149858	-0.011912830173969269	0.1917218416929245	-0.05763418972492217	0.07619919627904892	0.14303869009017944	-0.3756964802742005	-0.06383655965328218	-0.14453542232513428	0.004130202811211348	-0.002960952464491129	-0.3242350220680237	0.2515799403190613	-0.1918700337409973	0.10556381195783617	0.21540148556232447	0.07057016342878343	-9.381170093547553e-05	-0.09092815220355988	0.15457409620285034	0.08825886249542236	-0.1453154981136322	-0.020348330959677696	0.06560451537370683	0.0502135381102562	-0.25895237922668457	-0.25345683097839355	-0.06087464839220048	-0.07870438694953917	-0.0472816526889801	-0.22269199788570404	0.2183102667331696	0.12730081379413605	-0.169447124004364	-0.009280336089432241	0.2443020939826965	0.03514977917075157	-0.29533493518829346	0.012990088202059269	0.004120972007513046	0.03973177447915077	-0.4147997200489044	-0.09577596932649612	-0.1316402703523636	0.040716227144002914	-0.1734248846769333	0.004863949958235025	-0.2949451804161072	0.040707442909479134	-0.06976694613695145	-0.014894887804985046	-0.22536301612854004	-0.014297387562692162	-0.2263906747102737	-0.0577547550201416	-0.05396319925785065	-0.05647846683859825	0.060461238026618964	-0.01706778630614281	0.06183429434895515	-0.07743776589632034	-0.09051178395748137	0.08278591930866241	-0.15075434744358066	0.03521166369318962	0.08318589627742767	0.08598166704177856	-0.25365668535232544	-0.022195618599653244	-0.029907122254371643	0.03434212505817413	0.06767722964286804	0.02933381497859955	-0.09359804540872574	0.0653306394815445	0.1137365847826004	0.043887525796890266	0.02859755977988243	-0.053254127502441406	-0.06101455539464951	-0.247031643986702	0.1490485519170761	0.16992159187793732	-0.11070124059915544	-0.1122782900929451	-0.507863461971283	0.17594143748283386	0.4213053286075592	0.06847555190324782	-0.2283054143190384	0.003525973064824939	-0.16236336529254913	-0.4156624674797058	-0.07593699544668198	0.023250453174114227	0.04193415492773056	0.0909050703048706	0.21126921474933624	0.10439666360616684	-0.04857878014445305	-0.07710573077201842	0.12187259644269945	0.07737356424331665	-0.2874106466770172	-0.1738649308681488	0.018532417714595798	-0.06888879835605621	-0.05610567703843117	0.024969886988401413	-0.20779795944690704	0.18535450100898745	-0.17565074563026428	-0.0014447369612753393	0.10577192157506944	-0.12470773607492447	-0.21418584883213046	0.03726217523217201	0.27240273356437683	0.03605671599507332	0.05009756237268448	-0.010761060751974584	0.13419885933399198	-0.09130360186100006	0.3641913831233978	0.111212357878685	-0.307206928730011	0.01856034249067306	-0.0872715413570404	0.155307799577713	-0.11169355362653732	0.03213277831673622	-0.10658041387796402
ə	-0.03062968701124192	0.010106459259986876	-0.024069204926490784	-0.023774541914463043	-0.016403643414378166	-0.0190487839281559	-0.026595579460263245	0.002864735433831811	-0.03668535500764847	0.02760576084256172	-0.05052858963608742	0.010963620617985724	0.0008775288588367403	-0.007351092994213105	-0.0898398905992508	-0.021194325760006905	-0.027794960886240002	0.008181100711226463	-0.012696362100541592	0.005609510932117701	0.004123621620237827	-0.0021324849221855398	0.024817263707518574	-0.08457878977060318	-0.08805414289236069	-0.012667234055697918	0.02066151611506939	0.03295997530221939	-0.10331792384386064	0.0183579009026289	0.005683384370058775	-0.01224458310753107	-0.013319522142410278	0.0780566856265068	0.0923723429441452	-0.08195598423480988	-0.1040482297539711	0.18456031382083893	0.005924010649323464	0.12104955315589905	0.08960069715976715	-0.10071150958538057	-0.00802270881831646	0.014804956503212454	-0.11451052129268645	0.15470965206623075	-0.027277017012238503	0.0046126791276037684	-0.08505944162607193	0.18680045008659366	-0.03465217351913452	-0.09230245649814606	0.07350900024175644	-0.031089311465620995	-0.06402452290058136	0.23143328726291654	0.08285755664110184	0.1395811140537262	-0.11594229191541673	-0.10349058359861374	-0.015532885678112509	0.406587302684784	-0.08972231298685074	-0.11689351499080658	0.011217346414923668	-0.39638787508010864	-0.1959904581308365	-0.00992585439234972	-0.07652977108955382	0.02563890628516674	-0.007031158544123173	0.009527275338768959	0.09212304651737213	0.02082415483891964	0.07012438029050827	0.17851664125919342	0.019502248615026474	-0.1851644366979599	-0.020250335335731503	0.2660513818264008	0.11710409075021745	-0.05158912017941475	0.1558237373828888	0.4378123283386231	0.07960137724876404	-0.037551339715719216	-0.14384227991104126	-0.11485718935728073	0.008459827862679958	0.00937009695917368	-0.1427067071199417	0.09173474460840224	0.12524229288101196	-0.17964425683021545	-0.10703519731760024	-0.2035248428583145	-0.003632709383964538	-0.01720980741083622	-0.09345900267362596	-0.17955292761325836	-0.07852426171302795	-0.18119780719280246	0.02326570637524128	0.08175378292798996	-0.07356768101453781	0.08704345673322678	0.13876482844352722	-0.028940048068761826	0.05512248352169991	0.054433364421129234	-0.22811411321163175	-0.2004128247499466	0.0465368889272213	-0.2300869971513748	-0.02659463696181774	0.264381468296051	-0.1333739012479782	0.09398312866687776	-0.021007733419537544	-0.2645117938518524	-0.12490500509738922	-0.02776830270886421	0.04121818020939827	0.2714432179927826	-0.07854223996400833	-0.13664789497852325	0.19633235037326813	-0.16890162229537964	-0.038761787116527564	-0.19915495812892914	-0.0212941225618124	-0.055735699832439416	-0.07990661263465881	0.006791159510612489	-0.047067802399396896	-0.19009681046009064	0.09877590835094452	-0.20243731141090396	0.08124367147684097	0.2901819050312042	0.07850801199674606	-0.19380484521389008	0.045648019760847085	-0.2255274504423141	0.03264202922582626	-0.016244502738118168	0.04288030415773392	0.2942253351211548	0.05979060754179955	-0.24968309700489044	0.11644642055034635	0.14693710207939148	-0.0827285423874855	0.05383143573999405	-0.20125357806682587	-0.2427703589200973	-0.08431124687194824	0.04283790662884712	0.1532095968723297	-0.1733429729938507	-0.10730615258216858	0.047473780810832984	0.07528792321681976	-0.2829282581806183	-0.11014099419116974	0.06933917105197906	0.046286433935165405	-0.22593802213668826	0.06788674741983414	-0.13826970756053925	-0.2531438767910004	-0.20739924907684326	-0.2432948052883148	0.06539905816316605	-0.0006508931401185691	0.14078034460544586	-0.0256707277148962	-0.29831185936927795	-0.0935739055275917	0.10153579711914062	-0.054943487048149116	-0.11959820985794067	-0.1323813498020172	0.020410774275660515	0.10986318439245224	-0.2367909252643585	-0.06271040439605713	-0.1227189525961876	0.1681065410375595	-0.13915018737316132	0.04742850363254547	0.019425299018621445	0.05611718073487282	0.1488274335861206	-0.15867532789707184	0.16509151458740234	-0.05211507529020309	-0.26995694637298584	0.03136162459850311	-0.22406406700611115	0.03645654767751694	-0.1619042605161667	0.01165831834077835	0.20003379881381989	-0.06848160922527312	-0.10135003924369812	0.013864328153431416	-0.1290024220943451	-0.1075090318918228	-0.05378982797265053	-0.013370417989790441	-0.05386490374803543	0.12619304656982422	-0.14645232260227206	0.034418884664773934	0.3098558783531189	-0.0224350243806839	0.15593473613262174	0.041317310184240334	0.22411777079105374	-0.09414470195770264	-0.2060684710741043	-0.17679829895496368	0.1894377171993256	-0.05376069620251656	-0.17216092348098755	-0.053734466433525085	-0.04869992285966873	-0.03988364711403847	0.03971539065241814	-0.17749568819999695	-0.035336825996637344	0.031011603772640232	-0.221916526556015	-0.013786982744932176	-0.019133441150188446
ɛ	-0.02520662732422352	-0.003490801900625229	-0.04505273327231407	0.004818098619580269	-0.021038848906755447	-0.006578763015568256	-0.05197026953101158	0.0001736949197947979	0.0073469169437885284	0.008798297494649887	-0.019120454788208008	-0.023654082790017128	-0.09549537301063538	-0.012011099606752396	-0.0608336478471756	-0.010408438742160795	0.07262641191482544	0.025712419301271442	-0.1095532476902008	-0.03265506774187088	-0.0394853837788105	-0.03188539296388626	-0.012231088243424892	-0.02465013414621353	0.0147672351449728	-0.05527004599571228	-0.04646280407905578	0.014592788182199	0.013831456191837788	0.11396672576665877	0.006699982099235058	-0.06633099168539047	-0.017226530238986015	0.20635251700878146	0.13799598813056946	-0.03609616681933403	-0.04817763715982437	0.21720992028713226	-0.06848413497209549	-0.017520325258374214	-0.12058941274881366	0.0621124729514122	-0.024630116298794743	-0.11171751469373704	-0.06816267967224121	-0.19515958428382876	0.02553502283990383	0.3126908242702484	-0.036403417587280266	-0.18054626882076266	0.02422570437192917	-0.0036010986659675845	0.15422751009464264	-0.21628861129283905	-0.03626407310366631	0.022650137543678284	-0.09819228202104567	-0.08778530359268187	0.03803875669836998	-0.08731605857610703	-0.010749978944659231	0.5475575923919678	0.032694797962903976	-0.15001948177814484	0.08112914860248566	-0.10123284161090852	-0.08613649010658264	0.3161351680755615	-0.07806999981403351	0.1055540293455124	0.016687195748090744	-0.2383074164390564	0.2403955161571503	-0.03666399419307709	0.043676648288965225	-0.14108985662460327	0.06784588098526001	0.2824668288230896	-0.13711318373680115	0.004238930530846119	0.15715821087360382	0.2159618139266968	-0.1345013678073883	-0.1509331315755844	-0.027554618194699287	-0.2187233865261078	0.02340433001518249	0.186850443482399	-0.060260072350502014	-0.07367531210184097	-0.09431573748588562	0.052721742540597916	0.03378232941031456	-0.11126641184091568	-0.17061083018779755	-0.15457777678966522	0.18810410797595975	-0.08880195021629332	0.09695950895547867	0.15063731372356415	0.0317608080804348	-0.2505568265914917	-0.1538732945919037	0.07438800483942032	-0.19350890815258026	-0.12324714660644533	0.1292610466480255	0.060290541499853134	0.04380692541599274	0.10485026240348816	-0.4090968668460846	-0.06864508986473082	0.02308975905179977	0.08146383613348007	0.11870694160461424	0.09413887560367584	-0.15558557212352753	0.06463684886693953	0.08259175717830658	-0.05457690358161926	-0.20294350385665894	0.020084232091903687	0.0619436614215374	0.1420491486787796	-0.020589129999279976	0.1360045224428177	0.03451336175203324	-0.03638432919979096	-0.09767090529203416	-0.2693702876567841	0.01931747049093246	-0.00387620972469449	-0.1536099761724472	0.04678380489349365	-0.02198735438287258	-0.054540779441595084	-0.06569649279117584	-0.1057419404387474	0.0845959261059761	0.2316674143075943	-0.11534634977579115	0.001571833505295217	0.020150350406765938	-0.05671614035964013	-0.05713994055986405	-0.04185311123728752	0.01126436609774828	-0.3065716624259949	-0.15274035930633545	-0.15226618945598602	0.08334759622812271	0.12212583422660828	0.08375219255685806	0.18444380164146426	0.022549839690327644	0.09436921775341034	0.04836956039071083	-0.14202216267585754	-0.06410719454288483	-0.0720655769109726	0.06302927434444427	-0.0597175657749176	0.07390771806240083	-0.17183776199817655	-0.2106864303350449	0.05036817491054535	0.14560556411743164	-0.2566603720188141	0.047490052878856666	-0.1217074766755104	-0.04542405903339386	-0.08128196001052856	-0.16356107592582705	0.03612620383501053	0.04173087328672409	0.1738642454147339	-0.1316831111907959	-0.1071225106716156	0.05981482192873955	-0.20872218906879425	-0.07215820252895355	-0.06067236140370369	-0.19723421335220334	0.2943442761898041	0.0758543461561203	-0.091114841401577	-0.3035240471363068	0.09996284544467926	0.008459038101136684	-0.2845178842544556	-0.13725009560585022	-0.04707010090351105	-0.06376907229423523	-0.1511702537536621	0.004827858414500953	0.055508702993392944	-0.07311831414699554	-0.2742935717105865	-0.005468611139804125	-0.062486391514539726	-0.059148378670215614	-0.11090528964996338	0.08108586817979813	-0.023144645616412163	0.15786796808242798	-0.012195592746138573	0.057525914162397385	0.2168838232755661	0.1856564432382584	-0.09120827168226242	0.02224214375019073	-0.04484938085079193	-0.03643961250782013	-0.19109001755714414	0.006085745990276337	0.3580559492111206	0.13361699879169464	-0.13290433585643768	-0.055185168981552124	0.01939931139349937	-0.1778252273797989	-0.21311551332473755	0.0976155400276184	-0.26646971702575684	0.07423774152994156	0.0951010212302208	0.02795621752738953	-0.00601105997338891	0.01566576212644577	-0.19319836795330048	0.052599363029003136	-0.11662285774946213	0.08303748071193695	-0.1435374766588211	-0.036656882613897324	-0.3106563687324524
k	-0.020082367584109303	-0.03270236402750015	-0.049387842416763306	-0.010581905022263529	-0.017376905307173732	-0.010714532807469368	-0.05367344617843628	-0.03475116193294525	2.743887671385892e-05	0.014210947789251803	-0.06745483726263046	-0.014428496360778809	-0.022942012175917625	-0.02750949189066887	-0.03245200961828232	-0.07448018342256546	-0.1290791630744934	0.05141710862517357	-0.002680030418559909	0.0333046019077301	0.015468196012079716	-0.016852699220180508	-0.035438306629657745	0.03722529485821724	-0.023615024983882904	0.03602760657668114	-0.0030099048744887114	-0.024965800344944	-0.026501746848225597	0.03724951297044754	-0.061622697860002525	-0.16179810464382172	-0.09980442374944687	-0.13111349940299988	-0.08710182458162308	0.02428870648145676	-0.036307096481323235	-0.2494116723537445	-0.16521741449832916	0.08453376591205597	0.03358712419867516	0.0845993235707283	-0.015607763081789015	0.2257271409034729	-0.09692418575286864	-0.19556455314159396	0.14415498077869415	0.15903104841709134	-0.04395338520407677	-0.1362830251455307	-0.019017275422811508	-0.13884514570236206	0.17340360581874847	0.2706424295902252	-0.0007805269560776651	0.04555020108819008	0.020077427849173542	0.02604487352073193	0.1354372650384903	0.02908104471862316	-0.002637569792568684	0.19371894001960754	-0.2785663604736328	0.06675660610198975	-0.15939773619174954	-0.08317606151103972	0.1882074922323227	-0.18485687673091888	0.14292412996292114	-0.05701494216918945	0.015053982846438885	-0.2721670866012573	0.0192898903042078	-0.20858889818191528	-0.03798723220825195	-0.2369384765625	0.2047206908464432	-0.3344147801399231	-0.10903796553611757	-0.3799335360527039	0.06017093732953072	0.029689529910683632	-0.20691464841365811	-0.028574919328093532	-0.009610136039555071	0.14206509292125702	0.08145514875650406	-0.3396791219711304	0.03218722715973854	-0.06728480011224748	0.2821002900600433	-0.20827756822109225	0.01676168106496334	-0.12747032940387726	-0.20543961226940155	0.4531121850013733	0.04097605496644974	-0.037423975765705116	-0.08517736941576004	0.10751277953386308	-0.06121087819337845	0.02625470794737339	-0.09854578971862793	-0.06060566008090972	-0.0626988634467125	0.1987867504358292	-0.06952913105487822	-0.07435973733663559	-0.025210198014974598	-0.2755818068981171	-0.0950811728835106	0.0933394655585289	-0.2549189329147339	0.07413237541913986	0.1208370476961136	-0.28795725107192993	0.0936346799135208	0.05517130345106125	-0.19583432376384732	0.20505717396736145	-0.12766307592391968	0.036317601799964905	-0.002974801464006305	0.16902245581150055	-0.06455136090517044	-0.19668258726596832	0.008383342064917088	-0.22214584052562714	-0.010471897199749948	-0.3037071228027344	-0.048023682087659836	-0.18059858679771426	0.11924073845148088	-0.13471785187721252	-0.2011687457561493	-0.1043044850230217	0.22583641111850736	-0.18970265984535215	-0.011881046928465366	-0.20517095923423767	-0.10075091570615767	-0.19821371138095856	-0.06789728254079819	-0.026316246017813686	-0.0010330731747671964	-0.15487098693847656	0.0806620791554451	-0.14311322569847107	-0.042677853256464005	-0.11687493324279785	0.03516685962677002	-0.16174528002738953	0.04058213904500008	0.06507896631956099	0.07337319105863571	-0.0387146957218647	-0.1718391627073288	-0.060769859701395035	0.14045359194278714	-0.1746215671300888	-0.03766005113720894	0.003100966801866889	-0.12996748089790344	-0.16321685910224915	0.02231583185493946	-0.30451396107673645	0.1297965943813324	0.06660252064466476	-0.08306321501731873	0.006132123991847038	0.09366348385810852	0.15882763266563416	-0.11986349523067474	0.023330729454755783	0.02750057354569435	0.18683482706546786	0.17479963600635529	-0.1434001326560974	-0.10324065387248993	-0.07901918143033981	0.022874200716614727	0.14833199977874756	0.15331284701824188	-0.016614286229014397	-0.3142256736755371	-0.027925580739974976	0.20870524644851685	-0.14190828800201416	0.10891730338335036	-0.2188091576099396	-0.04266349226236344	0.3740359246730805	0.1744513213634491	-0.16918636858463287	-0.052543189376592636	0.021341495215892792	-0.239311084151268	-0.19147492945194244	-0.008388211019337177	-0.08433564007282257	0.12013988196849824	-0.1055733934044838	0.0028306716121733193	-0.19917990267276764	0.07763557136058807	0.18249496817588806	0.02462498657405376	-0.004351016599684954	-0.2617761790752411	0.049825098365545266	0.13263042271137238	0.08570948243141174	0.15028342604637146	0.08581691980361937	-0.01450501009821892	0.27916547656059265	-0.028197186067700383	-0.2397795021533966	-0.248816192150116	0.17127753794193268	-0.006186021491885185	-0.16278330981731415	0.2715636491775513	0.20530366897583008	-0.08102866262197495	-0.1187097430229187	-0.06273973733186723	-0.06546386331319809	0.10362979024648666	0.07982262223958969	-0.1358172744512558	-0.11438602209091188	-0.10443751513957976	0.11580008268356325	-0.10028254985809326	0.03978825733065605
m	-0.027107793837785717	0.004236654844135046	-0.026646904647350308	-0.003127243835479021	-0.01748732104897499	-0.054391369223594666	-0.04545356333255768	0.0005420384695753455	-0.051921233534812934	-0.016744861379265785	-0.0474725216627121	-0.008554687723517418	-0.00877600722014904	-0.020682577043771744	-0.04899418726563454	-0.007601738441735506	0.013909718953073023	0.000706828897818923	0.04948392882943154	-0.025757452473044395	-0.06706947833299637	0.017654793336987495	-0.07034437358379364	-0.05331212282180786	-0.043628733605146415	0.02880568988621235	-0.020134666934609413	0.03941918537020683	-0.010217792354524136	-0.0794055238366127	-0.05236208066344261	-0.16478970646858215	0.09617912024259567	-0.2450481355190277	-0.17064177989959714	-0.005023950710892677	0.0049230996519327155	-0.06841099262237549	-0.0862814337015152	0.3151257634162903	-0.0211110208183527	0.08011368662118913	-0.12215223908424375	-0.03835700452327728	-0.08202847093343735	-0.1521993726491928	-0.07958384603261948	0.15930220484733582	0.03147347643971443	-0.011307415552437305	0.012530945241451263	-0.18080703914165494	-0.10381069034337996	-0.2651917934417725	0.06775172054767609	0.1953015774488449	-0.15660130977630615	-0.0383918434381485	-0.032599546015262604	0.053684014827013016	-0.06466779112815857	-0.18144258856773374	0.0305511187762022	-0.042683154344558716	-0.05811407789587975	-0.04351859167218208	0.039512742310762405	0.1230756863951683	-0.15421605110168454	-0.026691988110542297	-0.0551450215280056	-0.2116260677576065	-0.19026243686676025	0.2907027006149292	0.10909580439329147	-0.10238637030124664	0.1951158493757248	-0.030109431594610214	0.10238265991210938	-0.20239010453224185	-0.1480780690908432	-0.038406789302825935	-0.14669862389564514	-0.06553244590759277	-0.10038889944553377	-0.17193391919136047	0.08419577032327652	0.16939057409763336	0.17414510250091553	0.18232057988643646	0.02608533576130867	-0.3675476014614105	0.031870417296886444	0.1871542185544968	-0.08710794150829315	0.20070615410804749	0.22850829362869265	-0.11887838691473007	-0.017101660370826718	0.1841110438108444	-0.030959976837038994	-0.1599722057580948	-0.15383151173591614	0.07188853621482849	-0.241346076130867	0.026437729597091675	0.15114726126194	-0.14920127391815186	-0.009198514744639395	-0.1091969907283783	-0.1653784066438675	0.04611296951770783	-0.20207752287387848	-0.03120576217770576	-0.06100008636713027	-0.029287545010447506	0.01435448694974184	-0.08338630944490433	0.0028509104158729315	-0.021119911223649982	-0.2739118933677673	-0.06830549985170364	-0.06704093515872955	-0.17752552032470706	0.14523030817508698	-0.07359081506729126	0.060274742543697364	-0.05901931598782539	0.05235473066568375	-0.18497176468372345	-0.06485242396593094	0.004581938032060862	-0.11121447384357452	0.1336352378129959	-0.17682203650474548	0.06912625581026077	-0.044068776071071625	-0.13879860937595367	-0.1125061884522438	-0.08921228349208833	0.15389877557754514	0.1311739683151245	-0.14513547718524933	-0.1264847368001938	-0.14138424396514893	-0.16645075380802155	0.05528765171766281	-0.13010860979557035	0.05093226209282875	0.09521554410457612	0.0625525489449501	0.11978261172771455	-0.14822250604629514	0.08830473572015762	-0.042333610355854034	0.013304257765412329	-0.1130683571100235	0.15915067493915558	0.23113662004470825	-0.061193361878395074	-0.006452711299061775	-0.12939831614494324	0.16496151685714722	0.2261068373918533	-0.13344696164131165	0.1678260862827301	0.06672510504722595	-0.006894822232425213	0.12917998433113098	-0.24389110505580905	0.12749642133712769	0.07461471110582353	-0.1414957344532013	-0.06522171199321747	-0.04722276702523232	-0.4568492770195007	0.20954841375350952	0.2504867613315582	-0.20181703567504886	0.062266774475574486	0.24510696530342105	0.2574598789215088	-0.001346573932096362	-0.2072725296020508	-0.34244227409362793	0.09425421804189682	0.23586224019527435	-0.018074458464980125	-0.005944491829723121	-0.2221941202878952	0.038042329251766205	0.1318402886390686	0.17962954938411713	0.1690233200788498	0.08012975752353667	-0.1393481343984604	0.10890630632638933	-0.2296568304300308	0.028868122026324276	0.4029083251953125	-0.051602836698293686	-0.18635304272174835	0.07951821386814117	-0.16598960757255554	0.053562037646770484	0.12367502599954605	0.08519001305103302	-0.07833808660507202	-0.13422192633152008	-0.23316973447799685	0.040419738739728935	-0.024947648867964745	0.12837426364421844	-0.037409208714962006	-0.034950237721204765	-0.15598413348197934	-0.004696658346801996	0.166078120470047	-0.01795932836830616	-0.20504017174243927	0.04990392923355103	0.01581524685025215	0.07008392363786697	-0.017559224739670753	-0.15591362118721008	0.10102415084838867	0.10150472819805144	-0.15738429129123688	0.04020796343684197	0.0008390525472350419	-0.12854911386966705	0.0712401494383812	0.21570146083831787	0.03431937098503113	-0.061151325702667236	0.26172900199890137
r	-0.0243538785725832	-0.011109110899269579	-0.027139246463775638	0.01177526731044054	-0.02924266830086708	0.023154720664024356	-0.015767177566885948	0.0063431691378355035	-0.030701523646712307	0.02819904126226902	-0.040523748844861984	-0.00095348252216354	-0.06670361012220383	-0.017586586996912956	-0.020482178777456284	0.008114464581012726	0.09343113750219344	-0.017400916665792462	0.14077813923358914	-0.026598632335662842	-0.005851111840456724	-0.03396173566579819	-0.04521254450082779	0.02499756775796413	-0.1615482121706009	-0.09840508550405502	-0.03610042110085488	0.0454268753528595	-0.051399290561676025	-0.00824489165097475	-0.03177763894200325	0.05234893783926964	0.018645189702510837	0.19126828014850614	-0.16956917941570282	0.10246209055185318	0.005570359528064728	-0.13991263508796692	0.0406855084002018	-0.040366746485233314	0.06306014955043793	0.07397085428237915	-0.10197099298238754	0.1117582619190216	0.057225968688726425	-0.09845271706581116	-0.01531017292290926	-0.07603958994150163	-0.06237295269966125	0.08056866377592088	0.06822272390127182	-0.2581678926944733	0.005013079848140478	-0.035960786044597626	-0.1697572022676468	-0.0499735102057457	-0.02158370427787304	-0.2813510596752167	0.06725818663835527	0.033928029239177704	0.033871710300445564	-0.10535145550966264	0.03346705436706543	0.27775776386260986	-0.0011666595237329602	-0.21958832442760468	0.1150977984070778	-0.01584850810468197	-0.1464688628911972	-0.02890123799443245	-0.1121654063463211	0.1010851114988327	0.1258375346660614	0.032622911036014564	0.040770381689071655	0.2558189928531647	0.055455822497606284	-0.2511756718158722	0.014993983320891855	-0.15804055333137512	-0.1362733691930771	-0.0026077653747051954	0.09398631006479263	-0.20723415911197665	0.026313241571187973	0.031078753992915157	0.00616436917334795	-0.05922360718250275	0.003508507739752531	0.17863081395626068	-0.021102266386151317	0.06029083952307701	-0.08556258678436279	-0.17477242648601532	0.10542692244052887	-0.03145698830485344	0.16039469838142395	-0.00130339281167835	-0.0866495668888092	-0.1266370415687561	0.14515584707260132	-0.011878973804414272	-0.07794537395238876	0.21040591597557068	-0.013906372711062431	0.00997420959174633	-0.14879654347896576	-0.05541778355836868	-0.04121803492307663	-0.09946224093437196	0.020829387009143833	-0.2548646032810211	-0.16971202194690704	-0.22003641724586487	0.008962390013039112	0.13220493495464325	0.06955642998218536	-0.06932874768972397	0.0022208408918231726	-0.1099873036146164	-0.03509896993637085	-0.08460226655006409	-0.007799250539392233	-0.168400377035141	-0.1422213762998581	0.08051701635122299	-0.2418114393949509	-0.1863258928060532	0.10286811739206314	-0.38881278038024897	0.07146072387695312	-0.2070303708314896	-0.032385386526584625	0.11144376546144484	-0.21535927057266235	0.028985694050788883	-0.008838637731969357	-0.13915610313415527	-0.3459934592247009	0.1084940955042839	-0.1436775177717209	0.08555015176534653	-0.05754526704549789	-0.22365084290504456	0.010073659010231495	0.13113577663898468	-0.04843579977750778	0.11055012047290802	-0.016619551926851273	0.10547531396150588	0.08813237398862839	-0.21279074251651764	-0.14069266617298126	0.2200016528367996	0.2583681643009186	0.2409753352403641	-0.31297779083251953	-0.18736134469509125	-0.08085469901561737	-0.03165040537714958	-0.00836121942847967	-0.05196278542280197	0.08554571121931076	0.14476417005062106	-0.16851317882537842	0.02314149029552937	-0.12875822186470032	0.1730635166168213	-0.23006340861320496	-0.0282004252076149	0.03470126539468765	0.023360773921012882	0.15697020292282104	-0.25498509407043457	-0.07770553976297379	-0.32488659024238586	-0.10827291756868362	0.30641138553619385	0.0010379338636994364	0.012119018472731112	0.09156854450702667	0.4530344903469086	-0.012826466001570223	-0.08649925142526628	0.11835312843322755	0.046290040016174316	0.10321718454360962	-0.17869839072227478	0.06546038389205933	-0.17470654845237732	-0.21529461443424225	0.307291179895401	-0.19217324256896973	0.014115069061517715	0.14299826323986053	-0.09201811999082564	-0.027663622051477432	-0.03263283148407936	-0.12109071016311646	0.141255721449852	0.2370487153530121	0.057498704642057426	0.14015668630599976	-0.027267247438430783	0.06341128051280975	-0.1901208460330963	0.09395931661128998	0.305063933134079	-0.16889376938343048	-0.0520922988653183	0.12343887984752655	0.13988164067268372	0.06811121851205826	-0.15816999971866608	0.1840323805809021	-0.22224614024162287	0.07788520306348799	0.006123724393546581	-0.18573836982250214	-0.17470848560333252	-0.02538655512034893	-0.17091356217861176	-0.003598520299419761	0.1195242777466774	-0.06399304419755936	-0.14090268313884735	-0.19855442643165588	0.08619815856218338	0.08284351229667664	-0.16219718754291534	0.08198481798171997	-0.3461833894252777	-0.30226796865463257	-0.1611686646938324	-0.0876082330942154	-0.2509360909461975
l	-0.02100493013858795	-0.02657551132142544	0.010652585886418821	-0.0043308548629283905	-0.031983375549316406	-0.00448395824059844	-0.0595598928630352	-0.01582411490380764	-0.09108667075634004	0.015097199939191341	0.02791040576994419	-0.015236454084515572	-0.08471829444169998	0.030209435150027275	-0.027479538694024086	-0.023273564875125885	-0.06966064870357512	0.022673359140753743	0.05677812919020653	-0.05985894799232482	-0.07072724401950836	-0.020970657467842102	-0.015611163340508938	-0.028394840657711033	-0.0856664776802063	0.0380634255707264	-0.006780800875276327	-0.02460324391722679	0.06559839844703674	-0.03381817042827606	0.023311769589781758	-0.10213616490364076	-0.0073118326254189014	0.06631992012262344	-0.13910946249961853	-0.04187754914164543	-0.013717574067413809	-0.01358010247349739	-0.015665013343095783	0.04123684763908386	-0.060011018067598336	0.11763530969619752	-0.12808336317539215	0.2340540438890457	-0.002598128747195005	-0.08586830645799637	0.02566282637417316	0.02178512327373028	-0.0917852222919464	0.2477196007966995	0.04433969408273697	-0.13159416615962982	-0.08237836509943007	0.1285855621099472	-0.06657058745622635	-0.11585576087236404	-0.22577640414237976	-0.13670533895492554	-0.0584341362118721	0.0616963729262352	0.021943198516964912	-0.2026277780532837	0.09231547266244887	-0.1524004489183426	0.001099978806450963	-0.2993495464324951	-0.24337580800056455	-0.07682084292173386	-0.06822517514228821	0.011569994501769544	-0.058598551899194724	-0.10296202450990677	-0.14877638220787048	0.054971370846033096	0.09281708300113678	0.12711749970912933	0.08481752127408981	-0.14374418556690216	0.012284846045076849	-0.3193702697753906	-0.1280822902917862	-0.1397380828857422	0.0847422257065773	0.0017023260006681087	-0.09534060955047607	0.05536215007305145	0.01670665293931961	-0.14118316769599915	0.02072211727499962	0.3450249433517456	0.03936361148953438	0.09467305988073348	-0.10164704918861388	-0.13508008420467374	-0.08247987926006317	0.2374342083930969	0.1138509064912796	-0.20702852308750155	0.1050572395324707	-0.10330963879823683	-0.10598785430192947	-0.12252545356750487	-0.1835937798023224	-0.03074677847325802	-0.047495029866695404	0.21363690495491028	-0.16186027228832245	-0.10005368292331696	-0.04887469112873077	-0.09289919584989548	-0.2559909820556641	-0.1960030198097229	-0.2299222052097321	-0.04681086167693138	0.13413368165493011	-0.18758869171142575	-0.015831874683499336	0.06005208194255829	0.12087998539209364	0.07126840949058533	0.0969168022274971	-0.02375514805316925	-0.05115082114934921	-0.11450114101171495	0.009159738197922708	0.1178530976176262	-0.14037223160266876	-0.08583252876996994	0.06667258590459824	-0.32065409421920776	0.02607795037329197	-0.049743324518203735	0.12287642061710358	-0.24896682798862454	-0.11206594109535216	-0.054838791489601135	-0.19512878358364105	0.05307532101869583	-0.002410397864878177	-0.11467178165912628	-0.03351778164505958	-0.15760435163974762	0.13567185401916504	0.0539935939013958	0.09040000289678574	-0.0630931630730629	0.0691366121172905	0.11531464010477065	-0.01474497374147177	0.2368786484003067	0.14887666702270508	-0.2166322022676468	-0.07108017057180405	0.4208309948444367	-0.13116829097270966	0.06834126263856888	-0.02001972682774067	0.005283670499920845	0.04402225092053413	-0.0037261419929564	0.10795477777719498	-0.26434165239334106	0.3026193380355835	0.30911049246788025	0.002886404516175389	0.0005921972915530205	-0.09367311745882034	-0.17466717958450315	-0.13486580550670624	-0.0628063753247261	-0.06019191443920136	-0.3143966794013977	-0.049479272216558456	0.2245077192783356	-0.13031534850597382	-0.2479622960090637	-0.008718621917068958	-0.026200620457530018	0.09915229678153993	-0.08050604909658432	-0.06484052538871765	0.3104032576084137	-0.011671937070786951	-0.052356921136379235	0.13814149796962738	0.1356324553489685	-0.04268015921115875	0.03054491430521012	-0.1773875504732132	-0.26343217492103577	0.023814640939235687	-0.09809857606887816	0.011031484231352806	-0.39843034744262695	-0.0020341123454272747	0.02492467127740383	0.013727085664868357	0.15649856626987454	0.029167037457227707	0.1987625062465668	0.11652109026908875	-0.0266290046274662	0.07555616647005081	-0.13451088964939115	-0.11986243724822998	0.12968549132347107	0.10209459811449052	-0.0636477991938591	-0.011114909313619135	-0.035927534103393555	-0.15982715785503387	-0.2770804762840271	-0.07058727741241455	-0.07670116424560547	0.04399072006344795	-0.1017669141292572	-0.16140249371528625	0.23768158257007602	0.2465883195400238	0.0832080990076065	0.1322646290063858	0.005935356952250004	-0.15354950726032254	0.07145948708057404	-0.13685430586338046	0.025031551718711853	-0.04281438514590264	-0.047549396753311164	-0.08583106845617294	0.1172800213098526	0.14777591824531555	-0.22405663132667544	-0.1839040368795395	-0.11378303170204165	-0.040852054953575134	0.25318676233291626
ɑ	-0.03201155737042427	-0.0066762613132596025	-0.039945714175701134	0.006157130002975464	-0.01883729733526707	-0.0110675236210227	-0.01613394916057587	-0.03591965138912201	-0.04930025339126587	-0.01898677460849285	-0.03756557032465935	-0.011972692795097828	-0.041112422943115234	-0.017626121640205383	-0.0066655767150223255	0.009221067652106285	0.07509645819664001	-0.020328529179096225	-0.05418497696518898	0.0007813966367393732	-0.02559272758662701	0.0013708003098145127	-0.05219805985689163	0.02077663131058216	-0.019319714978337288	-0.03465820103883743	-0.05625680088996887	0.08743611723184586	-0.02152793668210506	0.00490299705415964	0.06013240292668344	0.04457181692123413	0.0022132776211947203	-0.09810874611139296	-0.04324812814593315	0.0012229918502271175	-0.059103552252054214	0.2696620523929596	0.14202560484409332	-0.09866589307785034	-0.07627315074205399	0.031827189028263085	-0.031216438859701164	0.04557900503277778	0.12868577241897586	0.0016063603106886148	-0.05580892413854599	-0.2372843623161316	0.03419632092118263	-0.13111096620559692	0.014829753898084162	0.003958574030548334	-0.025068093091249462	-0.14974258840084076	-0.0057157124392688274	0.07693248987197876	-0.020503070205450058	-0.22677697241306305	0.07576636970043182	-0.11350337415933608	0.01366727240383625	0.2869784235954285	-0.18442001938819885	-0.2445313483476639	0.10342849045991898	-0.09189460426568984	0.15618520975112915	-0.09967858344316484	-0.21948066353797915	-0.11174490302801132	0.1219453066587448	-0.12709861993789673	0.16277381777763367	-0.16067826747894287	-0.01167359668761492	-0.09429382532835008	-0.10115844756364822	0.25122401118278503	-0.1991741955280304	0.20844346284866333	-0.10218776017427443	-0.16248562932014465	-0.050951287150383	-0.027939505875110626	-0.006294586230069399	-0.2238682508468628	0.10571979731321336	0.12483973801136015	0.10815244913101196	-0.017793715000152588	-0.18062327802181244	-0.0075776553712785235	-0.09088839590549468	-0.2178083807229996	0.047462571412324905	-0.11770233511924745	-0.030138993635773662	0.09657946228981018	-0.004883225541561842	-0.1139007955789566	0.0929761603474617	-0.020730281248688698	-0.2304812967777252	-0.1995740830898285	0.057061485946178436	-0.14318569004535675	0.15203657746315002	0.007761802524328231	-0.0424368791282177	-0.056914836168289185	-0.22465327382087708	0.2849041223526001	-0.05926268547773361	-0.17425596714019775	-0.07574710249900818	-0.1032291129231453	-0.3900116980075836	0.06643658131361008	-0.006885318551212549	-0.19582511484622955	-0.15816961228847504	-0.1508435606956482	0.057360228151082986	0.044245645403862	0.006604401394724846	0.1618710309267044	-0.18611246347427368	-0.056001994758844376	0.1861112266778946	-0.09870538860559464	-0.02885861694812775	0.09007162600755693	-0.08583167940378189	-0.13102641701698306	-0.16695153713226318	-0.28605008125305176	0.1178738921880722	0.1042238473892212	0.005713814403861761	-0.01696926169097424	-0.1323644369840622	-0.05388493835926056	0.031450968235731125	-0.01239850465208292	-0.0441950149834156	0.1719515323638916	-0.07458065450191498	0.03272898122668266	-0.01959010399878025	-0.012308049015700815	0.12756481766700745	0.13396991789340973	-0.05562297999858856	0.2940542697906494	-0.2826836705207825	-0.04501008242368698	0.0047671012580394745	0.0749347135424614	0.040494464337825775	-0.003384280949831009	0.08824960142374039	-0.0688784196972847	-0.10636353492736816	0.01384975481778383	-0.1312953233718872	0.1311948597431183	0.010597486048936844	-0.1462046056985855	0.052401136606931686	0.021505625918507576	-0.04837775975465775	0.13716737926006314	-0.05120910331606865	0.15433059632778168	-0.02569574303925037	0.24641048908233645	0.10743151605129242	0.07618620991706848	-0.11744460463523865	-0.1017117276787758	-0.10738015919923782	-0.2101869434118271	-0.09712304174900056	0.2367017716169357	-0.043386325240135186	-0.0903991237282753	-0.09260582178831099	0.11288268119096755	-0.01408369839191437	-0.18766802549362185	0.2084525674581528	-0.048297513276338584	0.004836042411625385	-0.01001629326492548	-0.11481691151857375	0.10389921069145204	0.05517568811774254	-0.170163094997406	0.059910766780376434	-0.1005297154188156	0.1131376251578331	0.16788311302661896	-0.0494520477950573	-0.0900881364941597	0.1551797091960907	-0.011351190507411957	0.08815529942512512	0.13040441274642944	0.05818292126059532	-0.10705576837062836	0.061005562543869025	0.05630820244550705	-0.07074031978845596	-0.036291681230068214	-0.2905862927436829	0.0162336528301239	-0.16870011389255524	0.09554744511842728	0.08973684161901474	-0.14834271371364596	0.09225861728191376	0.2542394995689392	0.09340043365955353	-0.3153611719608307	-0.0641174241900444	-0.15878434479236606	0.06676532328128815	-0.0793268084526062	-0.07893351465463637	-0.12189082056283952	0.10389699041843414	0.4126314222812653	-0.0558248981833458	-0.0011898626107722519	0.02140693366527557	-0.2572323977947235
o	0.0005574159440584482	-0.02534240111708641	-0.01928747072815895	0.014165200293064116	-0.027082938700914383	-0.005294602364301682	-0.01206531934440136	-0.019125184044241902	-0.029389288276433945	0.01868150383234024	-0.046735092997550964	-0.022327067330479625	0.07365112751722336	-0.06538773328065872	0.0015716897323727608	0.02389000356197357	0.057197846472263336	-0.030662260949611664	-0.0755501464009285	-0.01572776772081852	-0.057131871581077576	-0.05610319972038269	0.011635390110313892	-0.040163937956094735	-0.05590835213661194	-0.08194870501756668	-0.021161390468478203	-0.07912860065698624	0.016300475224852562	-0.1637403964996338	-0.02291761338710785	-0.08009018003940582	-0.02578146383166313	0.232888787984848	0.041651669889688485	-0.04121006652712822	-0.01814999245107174	-0.024508891627192497	-0.11597249656915665	-0.001933538587763905	-0.007187160197645427	0.11425874382257463	0.032525766640901566	0.1422416865825653	0.11951733380556108	0.2434547990560532	-0.13153335452079773	-0.22492121160030365	0.02083723433315754	0.049291230738162994	-0.07514974474906921	-0.127597376704216	0.037953350692987435	0.012797860428690909	0.046591158956289284	0.07956361770629883	0.043058589100837714	0.030621878802776337	-0.04143362492322922	-0.16111303865909574	0.0252826027572155	0.2776086628437042	-0.184886246919632	-0.15465980768203735	-0.06712642312049866	0.25548774003982544	0.061457779258489616	-0.07023168355226518	-0.05699998140335082	-0.033940259367227554	-0.1805972903966904	0.02001374773681164	-0.033517003059387214	-0.0006777897360734643	-0.07314769178628923	-0.2265649437904358	-0.35608193278312683	-0.010696521028876305	0.07204273343086243	0.531048595905304	0.2620702683925629	-0.06570794433355331	-0.17253345251083374	-0.13441401720046994	-0.008649400435388088	-0.05783263966441155	0.13587644696235654	-0.1682184338569641	0.19450896978378296	0.1061997190117836	-0.05743171647191048	-0.12929655611515045	0.10353653877973557	0.06656733900308609	0.008457407355308533	-0.19619087874889374	0.0935058370232582	0.1656922698020935	0.2949079871177673	0.1772303432226181	-0.11323517560958862	-0.4217066466808319	-0.14163847267627716	0.11371731013059615	-0.0051092663779854774	-0.0869215652346611	-0.058727890253067024	-0.10124222934246063	-0.02595493197441101	0.3708830773830414	-0.0471121221780777	-0.4038025438785553	-0.03580967709422112	0.10866402089595796	-0.08312589675188065	-0.02870788611471653	-0.11838578432798386	0.044558223336935036	0.011812453158199787	0.10241027921438216	0.13056580722332	-0.2307353764772415	0.15309017896652222	-0.16305726766586304	0.04183320701122284	-0.09641066938638687	-0.013107131235301495	0.14379775524139404	0.11754089593887328	-0.07002666592597961	0.10115718841552734	-0.19246286153793332	-0.18616154789924624	-0.1254807412624359	0.1365818828344345	-0.1824215948581696	0.01887614838778973	-0.057650446891784675	-0.0077346498146653175	-0.0849209651350975	0.1770029366016388	0.13399650156497955	-0.03030876070261002	-0.1261262446641922	0.1001180037856102	0.08789779245853424	0.17760972678661344	0.26790475845336914	-0.1612667739391327	0.3142770230770111	-0.055027659982442856	-0.08462750166654588	0.15001066029071808	-0.09566771239042282	-0.08560395240783691	-0.2745629251003265	-0.12292014062404633	-0.08250737935304643	0.09924206137657167	-0.1110243871808052	0.1388726532459259	-0.12508374452590942	0.07547815144062042	-0.15033037960529327	-0.015216119587421416	-0.10423509031534196	0.007342301309108734	-0.03755195438861847	-0.1280996948480606	-0.13223057985305786	-0.2708265483379364	-0.3575334846973419	-0.1730451136827469	0.14121833443641665	0.08754357695579529	0.24896778166294095	-0.02111899107694626	0.0562032125890255	-0.2607069909572601	0.1477869153022766	-0.17230188846588135	0.23491518199443814	0.09805841743946077	0.5051091313362122	-0.10917814075946808	-0.05212562903761864	-0.00751891592517495	0.22932009398937225	0.0693386122584343	-0.20838311314582825	-0.2626122832298279	-0.3284934461116791	-0.13611575961112976	0.05981249362230301	0.0699940025806427	-0.03013593889772892	0.1161959543824196	0.0010837104637175796	-0.13521814346313474	-0.16830967366695404	0.0577063076198101	-0.002287764335051179	0.038157977163791656	-0.07081083953380585	-0.15687786042690274	-0.13976256549358368	-0.038808494806289666	0.07495307177305223	-0.049740154296159744	-0.09743927419185637	0.009226446971297264	-0.13022863864898682	-0.15722884237766266	-0.0377119705080986	-0.06501377373933792	0.024858398362994198	0.04523178562521935	-0.17518435418605804	0.15261702239513394	0.07524639368057251	0.041057262569665916	0.04209500178694725	0.11889857053756715	-0.14828523993492124	-0.062294214963912964	-0.06357504427433014	-0.07887078821659088	-0.13731327652931213	0.03471367433667183	-0.2420501410961151	0.11172182112932204	-0.004407406318932772	0.09108959883451463	0.21147163212299347	-0.009171834215521812	-0.06486652046442032
j	-0.007390648126602174	-0.005698769353330135	-0.0012205459643155336	-0.02406986802816391	-0.06273061037063599	-0.01139739155769348	-0.047214876860380166	-0.03146842494606972	-0.0653718113899231	-0.029870146885514263	0.030138814821839333	0.005850964691489935	-0.07916861772537231	-0.012660428881645204	-0.015854500234127045	0.026127364486455917	0.008254910819232464	-0.019048821181058884	-0.13583722710609436	-0.005383291281759739	0.01312729250639677	0.04173067212104797	-0.00232139159925282	0.0535840280354023	0.07528727501630783	0.07584988325834274	-0.01924738474190235	0.0024475783575326204	-0.04760988056659698	-0.0018042470328509808	0.010502994991838932	-0.057924885302782066	0.10964544862508774	-0.07002167403697968	0.06082140654325485	0.017265776172280308	-0.006165321916341782	0.08374283462762833	-0.15232248604297638	0.043240439146757126	-0.08646316081285478	-0.15620876848697662	-0.07043607532978058	0.1048991084098816	0.13529236614704132	0.013431266881525515	-0.09259822219610214	0.2549234628677368	0.2298493981361389	0.13729530572891235	0.1214686930179596	0.0024711904115974907	-0.07100002467632294	-0.2595670819282532	-0.2634768784046173	0.04898199811577797	-0.0999353602528572	-0.2442363202571869	-0.06327015906572342	0.06811199337244034	-0.07092376053333282	-0.11285419762134552	-0.278459370136261	-0.0870218425989151	0.08769560605287552	-0.10125572979450226	0.0385923907160759	-0.1799420863389969	0.13947375118732452	-0.047873035073280334	-0.09244655072689056	-0.22049106657505035	-0.07757926732301712	0.15655937790870667	-0.11618627607822417	-0.06415656208992004	0.2935861647129059	-0.3630397319793701	0.0600241981446743	-0.24545471370220184	0.2345587015151977	-0.10450664162635803	-0.16150887310504913	-0.0844542607665062	0.09205623716115953	-0.20960617065429688	0.15187880396842954	-0.3535026907920837	-0.029238574206829068	-0.04511895775794983	-0.161484494805336	0.10164903849363327	0.0884379968047142	0.17769816517829895	-0.2135834246873856	0.20846620202064514	0.04426852241158485	0.0345880426466465	0.2790529727935791	-0.2333168685436249	-0.11040615290403366	0.34418147802352905	0.015588379465043543	-0.10820338875055313	0.04359401017427445	-0.1498638540506363	-0.09057773649692537	-0.09003879874944687	0.16268102824687958	0.043023470789194114	0.10025714337825777	-0.15407083928585052	-0.03642968088388443	0.2615640461444855	-0.016091473400592804	-0.19542743265628812	0.09733469039201736	0.06814198195934296	0.12328354269266127	0.2733945548534393	0.07218122482299805	-0.1826610118150711	0.1013600006699562	-0.17326989769935608	-0.14717984199523926	-0.3016336560249329	0.17034320533275604	-0.2523532211780548	-0.1024761199951172	-0.19267022609710693	-0.061289876699447625	-0.17556335031986234	-0.07923298329114914	0.10261338949203493	-0.2833054661750793	0.3718284368515015	0.2701896727085113	-0.05758696049451827	-0.11145982891321182	-0.0681135356426239	-0.2389199286699295	0.2853311002254486	0.048674020916223526	0.07553046196699142	-0.07526708394289018	-0.018338477239012718	0.0483693927526474	0.13952937722206116	-0.11637203395366667	-0.07826700806617737	-0.14209358394145966	0.022254562005400658	-0.1701507866382599	-0.1699037253856659	0.12012962996959685	-0.09957338124513626	-0.0611080676317215	0.16345493495464325	-0.17470240592956546	-0.10167301446199416	-0.18753696978092196	-0.06581138819456099	-0.051514260470867164	0.11767123639583588	-0.036637987941503525	0.09463898837566376	-0.08202404528856277	-0.31152841448783875	-0.27321016788482666	0.008528296835720539	-0.08685941249132156	0.07151194661855698	-0.0486990287899971	-0.048828627914190285	0.08794569969177246	0.017283132299780846	-0.012970488518476486	-0.24847757816314694	0.09235230833292007	-0.16819864511489868	-0.16214324533939362	0.54045569896698	-0.05164151266217232	-0.09676914662122726	0.10517217218875884	0.16125042736530304	0.03044908307492733	-0.15150617063045502	-0.2745164930820465	-0.20893293619155884	-0.15588611364364624	0.06462374329566956	-0.0660291239619255	-0.124778650701046	0.07107125967741013	-0.2843615114688873	0.07614592462778091	0.16770783066749573	0.053448330610990524	0.19471554458141327	0.15303964912891388	-0.4610788822174072	0.07838867604732512	-0.05303354933857918	0.09299849718809128	0.13598331809043884	-0.18685144186019895	-0.2349229753017425	0.1372079998254776	-0.1186627522110939	-0.10220988839864732	-0.24993205070495605	0.049374274909496314	-0.09440898150205612	-0.22726047039031985	0.17492157220840454	-0.023036826401948932	-0.2478804886341095	0.2504393756389618	0.10760678350925446	-0.0716647133231163	0.12501563131809235	-0.025076238438487053	-0.13449196517467502	-0.12724114954471588	0.3035828769207001	0.0368083119392395	-0.07911469787359238	0.008420096710324287	-0.2358662188053131	-0.07010967284440994	-0.1715122014284134	0.07577022910118103	0.09292496740818024	0.17813915014266968	0.3361867368221283
p	-0.009289070032536985	-0.003724547568708658	-0.031920351088047035	-0.021591966971755028	0.026632871478796002	-0.05515195056796074	-0.017364433035254482	-0.005211963318288325	-0.05463509261608124	-0.022050276398658752	-0.05754407122731209	-0.01828621886670589	-0.06390899419784546	-0.026599453762173653	-0.02373201586306095	-0.04739316180348396	-0.12535113096237185	-0.0010158782824873924	-0.04913987964391709	-0.1016027182340622	-0.0626167356967926	-0.003534226678311825	-0.09525873512029648	0.02044027857482433	0.055079363286495216	0.1482427418231964	-0.04124784842133522	-0.1318945735692978	0.08105112612247467	0.07242567092180252	-0.030437469482421875	0.05220918729901314	0.028917280957102776	-0.16186107695102692	0.02146521583199501	-0.08817225694656372	-0.06320125609636308	-0.15804579854011536	-0.2575841844081879	0.3117403090000153	-0.08376692980527878	0.30084899067878723	0.060565784573554986	0.24373513460159305	-0.0117912320420146	-0.20376580953598025	0.08305419981479645	-0.26557594537734985	0.06647539883852005	0.2644283771514893	0.17660905420780182	-0.07452766597270966	0.017068706452846527	0.17774522304534912	-0.06441852450370789	-0.031027162447571758	-0.3412499725818634	-0.07556194812059402	-0.15137596428394318	-0.06494643539190292	-0.0033892190549522643	0.15311329066753387	-0.21064533293247226	0.26467788219451904	-0.11339102685451508	0.049835097044706345	0.1744137704372406	-0.03599625453352928	-0.1900896430015564	0.22558775544166565	0.030052511021494862	0.020893439650535583	0.20284365117549896	-0.08214971423149109	0.03490055724978447	0.1960807740688324	0.20162749290466309	0.10891475528478622	0.22740375995635986	-0.31402528285980225	0.14116375148296356	0.15106990933418274	-0.2071669548749924	0.12559577822685242	0.1766716241836548	-0.036222100257873535	-0.031440868973731995	-0.18266721069812772	0.12264830619096755	-0.1847754716873169	0.09602484107017516	-0.2329111844301224	-0.1697748303413391	-0.15930505096912384	0.04909250140190125	-0.02528122998774052	0.0888175368309021	-0.171706885099411	-0.027334999293088916	-0.18072274327278134	0.1439513862133026	-0.11444161087274553	-0.04891130700707436	-0.22601518034935	-0.12488485872745515	-0.16424718499183655	0.2616684138774872	-0.045196425169706345	0.08124491572380066	-0.2865257859230041	0.007940615527331829	-0.3791429996490479	-0.16968011856079102	-0.2520834803581238	-0.10283675044775008	-0.3116176426410675	0.0009789338801056149	-0.0992356389760971	-0.08663572371006012	-0.090435728430748	-0.2210032194852829	0.06451567262411118	0.06764613091945648	0.106184184551239	0.00925228837877512	0.045954830944538116	0.10143692791461943	0.10102755576372148	0.21069881319999692	-0.17483264207839966	-0.10014477372169496	-0.04717978090047836	0.13083942234516144	0.09851478785276413	-0.06695180386304855	0.006590947508811951	0.06630813330411911	0.18753582239151	-0.12849751114845276	-0.21591374278068545	-0.10976002365350723	-0.17754268646240234	-0.019009286537766457	-0.04025239869952202	0.0002798074565362185	0.17321479320526126	0.06265558302402496	-0.1467750072479248	0.08346278220415115	-0.08770693838596344	0.02486591041088104	0.12242602556943892	0.002622748026624322	0.30471745133399963	-0.06514395028352737	-0.0001957584754563868	-0.0027532682288438077	-0.028702331706881527	0.05243829265236855	-0.17652679979801178	0.2352622598409653	0.11670272052288055	0.11280927807092668	0.0027343416586518288	0.0889560878276825	-0.1921364665031433	0.3214108943939209	0.0031469804234802727	0.03788824751973152	0.062254205346107476	-0.2169821709394455	0.036434173583984375	-0.0006250091828405857	-0.1986198127269745	0.12177585810422895	-0.06589984148740767	0.04112909734249115	-0.15441803634166718	-0.23308737576007846	-0.3643012642860413	-0.057870104908943176	-0.05277916789054871	-0.07316916435956955	-0.1103665605187416	-0.05476678535342217	0.04617142304778099	-0.0469268411397934	-0.23239530622959134	0.07210607826709747	-0.10043869167566301	0.20143531262874606	0.005383080337196589	-0.0995129719376564	-0.014170404523611069	-0.18276271224021912	-0.12800586223602295	-0.18578606843948364	-0.005948806647211313	-0.04870055988430977	0.011491443030536177	-0.04349833354353905	-0.32865026593208313	-0.07029659301042558	-0.1844242960214615	-0.018471021205186844	-0.12997883558273315	-0.0035581504926085468	-0.1748657524585724	-0.31448543071746826	-0.0012652892619371414	-0.07930333912372589	0.231850728392601	-0.08469830453395844	0.12379785627126695	-0.09164205938577652	0.1036211997270584	0.19633595645427704	-0.28431344032287603	0.10472297668457033	0.017618248239159584	0.03134721890091896	-0.008448759093880653	-0.020018575713038445	0.034525211900472634	0.12703020870685575	-0.07192796468734741	0.009680425748229029	-0.10556868463754654	0.043825630098581314	-0.18190082907676694	-0.3148404359817505	-0.32055509090423584	-0.0549892820417881	0.011082367971539496	-0.058237366378307336	0.1271512806415558
ɪ	-0.030907804146409038	-0.0363178513944149	0.00749211572110653	-0.009480830281972885	-0.034426596015691764	0.0036161125171929602	-0.04285742715001106	0.024667520076036453	0.009476885199546814	-0.006477750837802887	-0.050247833132743835	-0.022252576425671574	-0.08613154292106627	-0.02460033819079399	-0.06045401841402054	0.018347034230828285	0.11184454709291458	-0.0006482141325250268	-0.0608186237514019	0.005606673192232847	-0.05797146260738373	-0.009907630272209644	0.018692584708333012	-0.034535307437181466	-0.1305970847606659	-0.027576083317399025	-0.04785193502902985	-0.0050264871679246426	0.1400475800037384	0.09535392373800278	0.0696030780673027	-0.18260827660560608	-0.00973660871386528	-0.13796217739582062	0.06880652904510498	-0.13305920362472534	0.03374843671917915	0.2205665707588196	-0.11708518862724306	0.2360138893127441	0.030345497652888295	0.11499491333961487	-0.04629470780491829	-0.20131874084472656	-0.009141214191913605	0.030273469164967537	0.07169404625892639	0.11978193372488022	-0.06279593706130981	0.012597396969795229	0.02148374728858471	-0.024183154106140137	0.004869343712925911	0.13510051369667053	-0.05380082130432129	0.2621583938598633	0.04966482892632485	-0.2982416749000549	0.07866334915161133	-0.1433773934841156	-0.15542036294937134	0.09177204966545104	-0.02454396523535252	-0.1389767974615097	0.17936761677265167	-0.21555794775485992	-0.0448584146797657	-0.19946826994419095	0.10086219757795334	-0.2276845872402191	0.0257975235581398	-0.2111257016658783	0.10091961175203323	0.4362330138683319	-0.04433230310678482	0.02263081632554531	0.3175329566001892	-0.04028919711709023	0.027778849005699158	0.005620144307613373	0.24233663082122806	-0.14406970143318176	-0.02067732997238636	-0.008267674595117569	-0.08103729039430617	-0.21696192026138306	0.26235538721084595	-0.2909527122974396	-0.09000053256750107	0.07229185849428177	-0.08177608251571655	0.030574802309274673	0.006611778400838375	-0.12604311108589172	-0.046624422073364265	-0.14398515224456787	-0.13916195929050446	-0.057105351239442825	0.024952411651611328	0.2351512014865875	0.02916956134140492	0.08502893149852753	-0.17245830595493314	0.2902215123176575	0.09978535771369934	0.06968630850315094	0.05156420171260834	-0.06997289508581161	-0.08363623172044754	0.1786038875579834	-0.011480573564767838	0.17712029814720154	0.2223258465528488	0.13262136280536652	0.2530560791492462	0.5181649327278137	-0.12475904822349547	-0.18681755661964414	-0.045500639826059334	-0.09530073404312134	-0.11052189767360687	-0.2332090437412262	-0.13672026991844174	-0.02000132016837597	-0.022415794432163242	0.23817478120327	-0.029499299824237823	-0.2335478365421295	-0.14395810663700104	-0.07032040506601334	-0.046819932758808136	0.1366509050130844	0.0009984441567212343	0.1873641461133957	0.05919577181339264	0.06910399347543716	0.11983156204223633	-0.09690260142087936	-0.13260392844676971	0.1825068295001984	-0.07482194155454636	0.08235625177621841	-0.10846897959709167	-0.027260378003120426	0.06251724809408188	0.17013877630233765	0.09904415160417557	0.07385175675153732	-0.11949563026428225	-0.11697647720575333	-0.032798465341329575	-0.2088418155908585	-0.21096482872962952	-0.20674367249011996	-0.2763756215572357	-0.05256374552845955	0.16828441619873047	-0.014140699058771132	0.0314994677901268	0.022863147780299187	0.13601012527942655	-0.3444115519523621	-0.0590563602745533	-0.16975480318069458	0.10207407176494597	-0.19600576162338254	0.08593541383743286	-0.15540310740470886	0.1412750631570816	0.000868341710884124	0.028487084433436394	0.20871874690055847	0.13702858984470367	-0.011529821902513504	-0.040823139250278466	-0.20327728986740112	-0.09598837047815324	-0.13144174218177795	0.19254647195339206	-0.07665753364562987	-0.23014019429683685	-0.15874721109867096	-0.3224160969257355	0.12264160811901093	-0.23286552727222445	-0.29061204195022583	0.1024891510605812	0.10401521623134613	0.15342144668102264	-0.2263742238283157	-0.004665518179535866	0.13805019855499268	0.059204481542110436	0.15847539901733398	0.09636900573968887	0.06153297796845436	-0.029187070205807686	0.25835931301116943	0.08057264983654022	0.31329238414764404	-0.06905190646648407	-0.12536145746707916	-0.08892054110765457	0.0845612958073616	0.04799330979585648	-0.04508397728204727	-0.2857506573200226	0.038343027234077454	-0.057568337768316276	-0.0823318287730217	0.07361156493425369	-0.2164037823677063	-0.16746869683265686	-0.27097287774086	0.022257264703512192	0.21002735197544095	-0.19832628965377808	0.0141663309186697	0.003152127144858241	-0.1937113255262375	-0.16537313163280487	-0.2072681188583374	0.009304714389145374	-0.3005272746086121	0.045974060893058784	-0.15639464557170868	-0.041613612323999405	0.176227405667305	-0.2205528169870377	0.019088167697191242	-0.1630493402481079	0.0581895150244236	0.11564337462186812	0.19901666045188904	0.1477857381105423	-0.3116685748100281
u	-0.035697836428880685	-0.02219110913574696	0.015867825597524643	-0.011805509217083454	-0.001246913685463369	-0.003455908270552755	0.03083821572363377	-0.030113847926259037	0.0031483040656894445	-0.0032389394473284483	-0.008523043245077133	-0.013328512199223042	0.002912298310548067	-0.02997824549674988	0.031353067606687546	-0.040929168462753296	-0.07288403809070587	-0.003968091681599617	-0.09647884964942932	-0.012692419812083244	0.007629073224961758	-0.01854534819722176	-0.0086629344150424	0.03780069202184677	-0.04609491676092148	-0.03409145399928093	-0.0376046933233738	-0.1029314249753952	0.09974369406700134	-0.11717286705970766	0.026451194658875462	0.040504511445760734	-0.0037441879976540795	0.039497360587120056	0.01621147245168686	-0.11385411769151688	-0.021740665659308437	0.1174459382891655	0.09017112106084824	-0.0690038874745369	-0.12560492753982544	-0.035744886845350266	0.07658927142620088	-0.013718786649405956	0.131107360124588	-0.02023147977888584	0.06051953136920929	0.11138245463371277	-0.09379763156175612	0.01904134079813957	-0.06328901648521422	-0.20118010044097898	0.037572160363197334	-0.06274741888046265	0.15640400350093842	0.059988401830196374	0.156215637922287	-0.1432335376739502	-0.1598879247903824	-0.05775934830307961	0.04321309179067612	0.42934125661849976	-0.1318700909614563	0.12985247373580933	-0.1797586977481842	0.17512592673301694	0.19173291325569156	-0.2742751836776733	0.052874509245157235	0.31478458642959595	-0.02595176175236702	0.012233811430633068	-0.0122292498126626	-0.0812799483537674	0.06423935294151306	0.09548529982566832	-0.011684979312121868	0.15827268362045288	-0.12503595650196075	0.09010042250156404	-0.20987996459007266	0.5084962248802185	0.18899516761302948	0.0276860985904932	0.08274874836206436	-0.19959884881973267	-0.005596692208200693	-0.018308205530047417	-0.10928604006767273	0.06521862745285034	-0.05181705579161644	0.02352622896432877	0.05043565109372139	0.17931000888347626	0.1724005490541458	0.186448946595192	0.08364060521125792	-0.2352190464735031	-0.07821737229824066	0.044792540371418	-0.21219639480113986	0.04636508226394653	0.06474526226520537	-0.03261040523648262	-0.16327576339244845	-0.14005030691623688	-0.13725556433200836	-0.18041843175888064	-0.14141450822353366	0.3032059073448181	0.06530775129795073	0.11793925613164903	0.03199917450547218	-0.08211866766214371	0.054680820554494865	0.2499861270189285	-0.21463018655776975	-0.15473969280719754	-0.2507156133651733	0.034874379634857185	-0.003175995079800486	-0.3072848320007324	-0.16921204328536987	-0.01851038262248039	-0.14711782336235046	0.10058342665433884	-0.00018058347632177174	-0.12514765560626984	-0.311967670917511	-0.13145200908184052	0.0017447145655751226	-0.17572243511676788	0.05036935582756996	-0.0017699393210932612	0.09677689522504808	0.008469347842037678	-0.11192820221185684	0.14165371656417847	0.11620745807886125	0.20590467751026156	0.1027756929397583	-0.08715832978487015	-0.00013767907512374222	-0.02552792802453041	-0.0835789144039154	-0.18854981660842896	-0.09352020174264908	0.02031557634472847	-0.019260071218013763	0.11766146123409273	0.25683262944221497	0.06356519460678099	-0.11145568639039992	-0.16291490197181702	-0.3002101182937622	-0.2312008738517761	-0.08042958378791809	-0.18327729403972626	0.15598061680793762	-0.06775007396936418	-0.03561295196413994	-0.0994495376944542	-0.10794416069984436	-0.3538634181022644	0.008804041892290115	0.06937014311552048	0.01206315215677023	0.1169288232922554	0.18302156031131744	-0.02104159258306026	0.1498008668422699	-0.0986039936542511	-0.02501290664076805	0.0925888866186142	-0.04782519116997719	-0.05826700478792191	-0.1220339983701706	0.16007505357265472	0.11735985428094865	0.16779877245426178	0.040120024234056466	-0.17224934697151184	-0.048788681626319885	0.3936493098735809	0.12690706551074982	-0.19457866251468656	-0.30825504660606384	0.09531015157699584	0.04795986786484718	-0.1437700390815735	-0.1870933175086975	-0.34771355986595154	-0.35686126351356506	-0.2100317031145096	0.0909041240811348	-0.1807069331407547	-0.1049548089504242	-0.26962703466415405	0.13107262551784515	-0.11109133064746857	0.08204952627420425	0.32837972044944763	0.026515550911426544	0.014967008493840694	0.11989785730838776	0.09050443023443222	-0.17776443064212802	-0.11849704384803772	-0.07352305203676224	0.07370182126760483	0.2028012722730637	-0.27921760082244873	-0.031051557511091232	0.11407018452882768	0.1898136287927628	0.5588254332542419	0.003918734844774008	-0.3330293595790863	-0.1272524744272232	0.18281419575214386	-0.029881766065955162	-0.045334842056036	0.03653477132320404	-0.10200968384742737	0.03764573484659195	-0.14991360902786255	0.08192118257284164	-0.10840793699026108	-0.01787419989705086	-0.1173584833741188	-0.19335421919822693	0.1613965779542923	0.009282283484935759	-0.38885635137557983	-0.1534930020570755	-0.11393346637487413
e	-0.048926476389169686	-0.007875804789364338	-0.0757061094045639	-0.0336361899971962	-0.007536556106060743	-0.012567872181534769	0.027093062177300453	0.040235351771116264	-0.049949094653129585	0.022743213921785355	-0.013374361209571363	0.012461250647902487	0.02850147522985935	-0.013510873541235924	-0.040062565356493	-0.012109014205634594	0.07722802460193634	0.015991412103176117	-0.10925013571977617	-0.027736959978938103	-0.06265423446893692	0.001739179715514183	0.00400445144623518	0.003150011645630002	-0.012694435194134712	-0.08536884933710097	-0.03183415904641152	-0.1234963983297348	-0.051109209656715386	-0.02861092798411846	0.09411681443452836	-0.12789249420166016	-0.011015207506716251	0.13844282925128934	-0.01440470665693283	-0.16966372728347778	-0.1238846704363823	0.003046380588784814	-0.07666588574647902	-0.15070976316928866	0.010324654169380665	-0.0925288200378418	0.024179527536034584	-0.10364224016666412	-0.04595426470041275	-0.20574717223644254	0.22212272882461548	-0.039608854800462716	-0.004572591744363308	0.02444411814212799	-0.02600174210965633	0.15790271759033206	0.006427271291613579	-0.06662756949663162	-0.03448360785841942	-0.03040801733732224	0.20252323150634768	-0.12351230531930925	-0.16153132915496826	-0.08519206941127777	0.010548388585448263	0.3663958907127381	-0.18512658774852755	-0.12109727412462234	0.07603361457586287	-0.1414739340543747	-0.11198926717042924	0.2438868284225464	0.03519307076931	-0.12747491896152496	-0.20176079869270325	-0.24499554932117465	0.14047709107398987	0.18083518743515012	-0.21325258910655973	-0.20606866478919986	-0.15611632168293	0.19267670810222626	0.014749149791896343	-0.17983582615852356	-0.11024104803800584	-0.08215611428022385	-0.0529831126332283	0.09934695810079576	-0.04073762148618698	-0.14514736831188202	0.028438078239560124	-0.03656117990612984	-0.12063851952552795	0.274337500333786	-0.4137091040611267	0.02276172488927841	0.1498027890920639	0.2879442274570465	-0.03873669356107712	-0.28429242968559265	0.20572276413440704	0.16655877232551575	-0.0707445740699768	-0.4616826176643372	-0.12543925642967224	-0.1438405215740204	-0.19550974667072296	0.2458873391151428	-0.06762829422950745	-0.21076101064682007	0.27079784870147705	0.07587291300296782	0.006648801267147064	0.012148458510637285	0.1716468632221222	-0.12120256572961807	0.08472114056348799	-0.06651855260133742	-0.03938395157456398	-0.17160987854003906	-0.15342587232589722	-0.03315277025103569	-0.034690991044044495	-0.009303765371441841	-0.008596175350248814	0.0007128807483240963	0.04309887439012528	0.1593775600194931	0.010360640473663809	-0.059769973158836365	0.15614373981952667	-0.22407115995883944	-0.27923819422721863	-0.201591432094574	0.04484966397285461	-0.02328628674149513	0.051152240484952934	0.18555527925491333	-0.05599656701087952	-0.013237249106168749	-0.09162435680627824	0.07220117002725601	0.1797289401292801	0.27928709983825684	-0.016417192295193672	0.17390471696853638	-0.0004981817910447717	-0.21621428430080414	0.01600005105137825	0.15225055813789368	-0.026142051443457603	-0.08171381801366806	-0.16487523913383484	0.4230911135673523	0.07276758551597595	-0.09266229718923567	-0.24918673932552335	-0.2564873695373535	-0.05260705575346947	0.15487462282180786	-0.013608163222670557	0.01777083799242973	-0.044106312096118934	-0.31334662437438965	0.15848489105701447	0.036385711282491684	0.1432337909936905	-0.09390673041343688	-0.09276330471038817	-0.06925610452890396	0.10920435935258864	-0.12312717735767365	-0.05873482301831245	0.13350814580917358	-0.11782851815223695	-0.12013208866119385	-0.1651833951473236	-0.04098085314035416	0.07846743613481523	0.2752246856689453	0.003810803173109889	-0.1244155690073967	0.18015293776988986	0.02010953240096569	-0.1166309043765068	-0.030766010284423825	0.10313544422388077	0.4198670983314514	-0.0724550262093544	-0.13178814947605133	-0.13510802388191226	0.1495959758758545	0.1191101297736168	-0.08836910873651505	-0.025428207591176036	0.010316841304302216	0.14938867092132568	-0.09310343861579896	0.152384415268898	0.11072323471307756	0.07889188081026077	-0.32045644521713257	0.04822119325399399	0.12589621543884275	-0.12173674255609512	0.00654349848628044	-0.09600408375263214	0.09991918504238127	0.06760454177856445	-0.18528920412063601	0.06743139773607254	0.34446805715560913	-0.09576833993196487	0.16436223685741425	-0.2153912335634232	-0.07651491463184358	0.18964608013629916	0.033268827944993966	-0.16053982079029086	-0.024001901969313618	0.15091823041439054	0.11139601469039916	-0.2132321447134018	0.13654755055904388	-0.04391514882445336	-0.0919024720788002	-0.1340579092502594	0.15428869426250458	-0.05534011498093605	0.03347141295671463	-0.2672019004821777	-0.1967431902885437	0.13667866587638855	-0.18480023741722107	-0.012568590231239796	-0.032811570912599564	0.10865488648414612	0.01813708245754242	-0.08492191880941391	-0.004371978342533112
d	-0.011869574896991251	-0.008957767859101295	0.003618223126977682	0.01446877419948578	-0.041771236807107925	-0.0037655020132660866	-0.020733963698148727	0.003908314276486635	-0.08627981692552568	-0.07741893082857132	-0.05167147144675255	0.02530608139932156	-0.06790640205144882	0.04238928481936455	-0.00028077224851585925	-0.011777672916650772	-0.02622447721660137	-0.04420831426978111	0.15832392871379852	-0.015525437891483309	-0.0020580121781677008	-0.016169797629117966	-0.06585055589675902	-0.039182979613542564	-0.00252531748265028	-0.10221335291862488	-0.03954385593533516	-0.060177292674779885	0.07856723666191101	0.1920718401670456	-0.0042297025211155415	0.07059746235609055	-0.23630249500274655	-0.3207926750183105	0.06265299767255783	-0.0485023558139801	-0.07172656059265138	0.03566485270857811	0.10484271496534348	0.15540927648544312	-0.059855163097381585	0.3065251708030701	0.06089037284255028	-0.11113685369491576	-0.15278027951717374	-0.20340485870838165	-0.14486843347549438	-0.3980048894882202	-0.11056771129369736	0.09616613388061523	0.09553047269582747	0.05904076620936394	0.015968017280101776	0.3251347541809082	0.06907572597265244	0.032522380352020264	-0.0881500393152237	0.02490805834531784	0.0386149100959301	0.045521970838308334	-0.029667511582374576	0.09693814069032668	-0.1139431744813919	-0.3552333414554596	-0.3202594816684723	0.08918870985507965	-0.05639167129993439	-0.03256240859627724	0.13006636500358582	0.09954529255628586	0.06409382075071335	-0.00769879063591361	0.07355787605047226	0.00019351045193616298	-0.04630347341299057	0.1143883690237999	-0.22042348980903625	-0.08257554471492767	-0.017738329246640202	0.2520903646945953	-0.07846476882696153	-0.14380408823490146	-0.1175902932882309	-0.3589264154434204	-0.05404147505760193	0.06533455848693848	0.1944735944271088	-0.15687522292137146	-0.19071723520755768	0.1292031705379486	0.07130446285009384	-0.15723693370819092	-0.12295635789632794	0.06354450434446335	0.010649227537214756	-0.1497265100479126	-0.02193840965628624	-0.1353663057088852	0.0655938908457756	-0.0844167172908783	-0.06740364432334901	-0.11014704406261444	0.11039377748966216	-0.02225710079073906	-0.24210168421268466	0.17288191616535187	-0.053995531052351	-0.05774421244859696	0.06643839180469513	-0.1812036782503128	-0.25272348523139954	-0.16541674733161926	0.039861537516117096	0.04413875192403793	-0.04863891378045082	-0.2784474194049835	0.3421057164669037	-0.2606109082698822	0.13543327152729034	-0.07402902841567993	-0.2014639675617218	-0.06492716073989868	-0.09504500031471252	-0.0827154591679573	0.11584333330392838	-0.1280512809753418	-0.3097130060195923	-0.2124924510717392	0.09479063004255296	-0.09546749293804167	-0.22455649077892306	-0.050693225115537636	-0.10662570595741272	0.10792240500450134	-0.05427594855427742	0.3154537379741669	-0.05558016151189804	-0.06792611628770827	0.12477970123291016	0.03544728830456734	0.2000938504934311	0.0973239168524742	-0.009246760979294777	-0.07151852548122406	-0.12394469976425172	-0.22642827033996585	-0.1592138707637787	-0.12532837688922882	0.12288283556699753	0.01067508477717638	-0.1639808565378189	-0.06516199558973312	-0.20467205345630649	0.1685437560081482	-0.042070034891366966	0.1783936619758606	0.11403944343328475	-0.12282659113407135	-0.25924399495124817	0.03470895066857338	0.022867033258080482	0.002283237408846617	0.10306984186172484	0.1149558499455452	-0.0018509647343307734	0.05567208677530289	0.12954950332641602	-0.0775245651602745	0.20203232765197754	0.15300895273685455	0.061315946280956275	-0.2780566513538361	0.022283218801021576	0.3496361672878265	-0.10090047121047974	0.06108192354440689	0.1179015189409256	-0.09908648580312727	0.037405524402856834	-0.0524434894323349	-0.11547199636697768	0.07392024993896484	-0.22662204504013064	-0.17555983364582062	-0.2158396393060684	0.16004639863967896	0.17477735877037048	-0.08491773158311844	-0.23791168630123136	-0.2599059045314789	-0.03627097606658936	0.1283707469701767	0.13618342578411102	-0.11465932428836825	-0.238920733332634	0.040747445076704025	-0.1380927413702011	-0.15671750903129578	0.17619626224040985	-0.09637101739645004	0.08634798973798752	0.2424663156270981	0.26003146171569824	0.2581366300582886	-0.03256649151444435	0.09521418064832687	0.02781970426440239	0.3074938058853149	-0.15063130855560306	-0.09324025362730026	-0.2160438597202301	-0.053678620606660836	0.08974682539701463	-0.13977225124835968	0.2485484927892685	-0.2992783784866333	0.1014610156416893	0.14050093293190002	0.21814510226249692	-0.3138180673122406	0.03961198776960373	0.22499066591262815	-0.13896867632865906	-0.00307848840020597	-0.005435002036392689	-0.07029587030410768	-0.12369362264871595	-0.0689716637134552	0.16091515123844147	-0.12741190195083618	0.11271863430738448	-0.2918836772441864	0.10689041018486024	-0.08062102645635605	0.057340066879987724	0.3512864708900452
v	-0.05326150357723236	-0.02511124685406685	-0.03461272269487381	-0.022095782682299614	0.03802469745278359	-0.0035096569918096066	-0.06812445819377899	-0.027584129944443703	-0.054667871445417404	-0.026343462988734245	-0.03648975118994713	0.01875822991132736	-0.08094386011362076	-0.06148893758654594	0.02538239397108555	-0.057988543063402176	-0.0013283357257023456	0.015202386304736137	-0.06280530989170073	-0.032522957772016525	-0.015672884881496433	-0.06426385790109634	-0.03085024654865265	0.009408412501215936	0.012789213098585606	0.08816547691822052	-0.08467825502157211	0.10677264630794524	-0.10948425531387328	-0.1594686657190323	-0.08096161484718323	-0.006706432905048132	0.07448004186153412	-0.14053481817245486	0.0434480682015419	-0.02721504122018814	-0.02516244351863861	-0.1892470270395279	-0.047297388315200806	-0.1406506597995758	-0.02301045134663582	-0.11250974237918854	-0.07085193693637848	0.15175725519657135	-0.17190487682819364	-0.08256074041128159	-0.02718355879187584	0.0396549217402935	-0.009657650254666805	-0.06614629924297333	0.2225845456123352	-0.09136513620615004	-0.00965000595897436	0.06588318198919296	0.046914897859096534	0.22499525547027588	-0.1835714429616928	-0.0019878926686942573	-0.22124788165092468	0.015407876111567019	-0.024214880540966988	-0.1560564488172531	-0.11297211796045305	0.06132326275110245	-0.22646410763263705	0.4646703898906708	-0.06936118006706238	0.01000760868191719	0.2068469077348709	-0.08592609316110611	0.03810138627886772	-0.03500999137759209	-0.009206464514136314	0.039640162140131004	0.1182406172156334	0.031158346682786938	0.056473001837730415	-0.18619842827320102	0.06628265231847763	-0.2731723487377167	-0.09903929382562636	0.13334272801876068	-0.1699562817811966	0.018954960629343987	-0.1276170164346695	-0.2262329608201981	-0.09443235397338867	0.039096854627132416	0.14293071627616882	0.11786351352930068	0.0017248478252440689	-0.1689344048500061	0.02203513123095036	0.2767646312713623	0.267464816570282	-0.0675143450498581	0.0986177772283554	0.11700953543186188	-0.010059359483420849	-0.13254044950008392	-0.017412925139069557	-0.2832488417625427	0.052527617663145065	0.06639965623617172	-0.2656620740890503	0.2094696909189224	-0.05021296814084053	-0.05117939040064812	-0.0013390854001045227	-0.30568596720695496	-0.27524253726005554	0.07423766702413559	-0.1218930408358574	-0.14554905891418454	-0.1791449636220932	0.09020784497261047	-0.02217857539653778	-0.14146998524665833	-0.1799599826335907	0.025979677215218544	0.1433744728565216	0.027885744348168373	0.1548713743686676	-0.007261916995048524	-0.22353041172027588	-0.15993580222129822	-0.1075240671634674	-0.2517706751823425	0.022174922749400142	-0.14204825460910794	-0.06578551977872849	-0.05259961262345314	-0.06431154906749725	0.22647644579410556	-0.22357596457004547	0.2277580946683884	0.03782493248581886	-0.1117650792002678	0.06325935572385788	0.00033312413142994046	-0.10505615919828416	0.1156354919075966	0.08947154134511948	-0.03055821545422077	-0.10885661840438844	-0.3667989373207092	0.046973560005426414	-0.15127025544643402	0.2796308994293213	-0.07670202106237411	-0.04433465749025345	-0.12913313508033752	0.026785265654325485	0.2271395921707153	0.0859098881483078	0.1231529638171196	0.09855691343545914	-0.11841829866170885	0.05580389127135277	-0.16313229501247406	0.03176148235797882	0.0492427833378315	0.07722488790750504	-0.18762178719043726	0.18622428178787231	-0.1331065148115158	-0.2937496304512024	0.08236418664455414	0.11054625362157823	-0.055846579372882836	0.03504940867424011	0.11193528026342392	0.114784337580204	0.09694967418909073	-0.05321704223752022	-0.4986301958560944	-0.12701037526130676	0.14704668521881106	-0.06826090067625046	0.1170366182923317	-0.07887806743383408	-0.09951531887054443	-0.14304780960083008	-0.08957868814468384	0.057690974324941635	0.203709676861763	-0.2501975893974304	0.0037189170252531776	-0.2384572774171829	-0.06293418258428574	-0.19642792642116547	-0.338711142539978	-0.16866254806518555	-0.021150479093194008	0.010731457732617857	0.07442418485879898	-0.13175401091575625	-0.08424891531467438	0.1475287228822708	0.054483138024806976	0.08884518593549727	-0.08876930922269821	0.20721951127052307	0.032512102276086814	-0.10135459154844284	0.10116036981344224	0.2368326336145401	-0.2100052237510681	-0.2809982001781464	-0.25387078523635864	0.03379412740468979	0.24591024219989774	-0.09776248782873154	0.20960137248039248	-0.11930010467767715	-0.12768054008483887	0.34022700786590576	0.050377897918224335	0.17896462976932526	-0.20019112527370453	0.20001786947250366	0.03626640141010285	-0.04247985407710075	-0.23478953540325165	-0.017770644277334213	0.058692853897809975	-0.016152828931808468	-0.1504390984773636	-0.10264448821544647	0.026384100317955017	-0.06881436705589294	-0.03674137219786644	0.014373975805938244	0.0356624461710453	-0.1195497214794159	0.07124504446983337
